tree
num_class=1
num_tree_per_iteration=1
label_index=0
max_feature_idx=12
objective=regression
feature_names=holiday xf1 xf2 xf3 xf4 xf5 xf6 xf7 trend sunny cloudy rainy snowy
feature_infos=none [0:1] [0:1] [0:1] [0:1] [0:1] [0:1] [0:1] [6.4824014285714293:25.177594285714303] [0:1] [0:1] [0:1] none

Tree=0
num_leaves=7
num_cat=0
split_feature=7 5 3 6 2 8
split_gain=167278119.89326933 81002264.918691605 81946817.796409547 125729792.49381483 167978454.03138718 27823675.814081877
threshold=9.9999996826552254e-21 9.9999996826552254e-21 9.9999996826552254e-21 9.9999996826552254e-21 9.9999996826552254e-21 11.1699364285714
decision_type=2 2 2 2 2 2
left_child=1 2 3 4 5 -1
right_child=-2 -3 -4 -5 -6 -7
leaf_value=11784.919175889758 11784.919175889758 11984.919175889758 11976.673204698351 11982.63423533364 11959.285294789017 11826.156055435824
leaf_count=22 27 26 25 21 22 29
internal_value=0 575.33147593531112 225.96777997698103 -201.98775092591632 -822.2900486776274 -1818.5934484145221
internal_count=172 145 119 94 73 51
shrinkage=1


Tree=1
num_leaves=6
num_cat=0
split_feature=7 5 6 2 8
split_gain=151353968.85284415 74284588.690493017 69262171.661243588 68825892.6033113 18392352.340663053
threshold=9.9999996826552254e-21 9.9999996826552254e-21 9.9999996826552254e-21 9.9999996826552254e-21 11.717442857142849
decision_type=2 2 2 2 2
left_child=1 2 3 4 -1
right_child=-2 -3 -4 -5 -6
leaf_value=-55.029972715635566 -100 100 92.829305339994889 70.647812097722834 -5.8189632317958733
leaf_count=37 27 26 21 22 39
internal_value=0 543.07084424249058 208.50734819684709 -144.65238578952088 -595.53909382067229
internal_count=172 145 119 98 76
shrinkage=0.05


Tree=2
num_leaves=7
num_cat=0
split_feature=1 7 8 8 8 8
split_gain=553884251.63941467 257046441.87700152 26360156.868553936 28042969.525524437 5958039.2988306321 2887768.5579705834
threshold=9.9999996826552254e-21 9.9999996826552254e-21 10.579692857142849 14.082578571428598 8.9918364285714301 12.671213571428549
decision_type=2 2 2 2 2 2
left_child=1 2 4 5 -1 -4
right_child=-2 -3 3 -5 -6 -7
leaf_value=21.711039252877239 -100 -96.779803212483728 100 55.219228201201467 59.842985244024362 100
leaf_count=20 24 27 27 33 21 20
internal_value=0 854.28534991193465 1476.8208720802277 1810.9607002258301 824.84071960100312 2307.0673490483709
internal_count=172 148 121 80 41 47
shrinkage=0.05


Tree=3
num_leaves=7
num_cat=0
split_feature=7 5 3 6 2 8
split_gain=122017285.50298044 65043332.416605622 75382750.071380764 101847352.40913957 135499781.23216501 23374474.616301864
threshold=9.9999996826552254e-21 9.9999996826552254e-21 9.9999996826552254e-21 9.9999996826552254e-21 9.9999996826552254e-21 11.1699364285714
decision_type=2 2 2 2 2 2
left_child=1 2 3 4 5 -1
right_child=-2 -3 -4 -5 -6 -7
leaf_value=-100 -91.940813248245817 95.467725034860464 85.337623718261725 84.684616697402234 63.451594612815171 -55.523880425814923
leaf_count=22 27 26 25 21 22 29
internal_value=0 476.493054120294 163.43088932197634 -247.02697904059227 -805.31609647567961 -1700.1328759286919
internal_count=172 145 119 94 73 51
shrinkage=0.05


Tree=4
num_leaves=7
num_cat=0
split_feature=1 7 8 8 8 8
split_gain=504078862.62534362 213162621.74974257 23844671.610267103 25880644.502690077 5298659.6354196854 2824071.0944415629
threshold=9.9999996826552254e-21 9.9999996826552254e-21 10.579692857142849 14.082578571428598 8.9918364285714301 12.671213571428549
decision_type=2 2 2 2 2 2
left_child=1 2 4 5 -1 -4
right_child=-2 -3 3 -5 -6 -7
leaf_value=18.60831331253052 -100 -87.343772549099398 97.202604731807014 49.981897758715085 54.568364315941224 100
leaf_count=20 24 27 27 33 21 20
internal_value=0 793.71974146043931 1360.6294125013114 1678.4265071868897 740.5375204318907 2155.0227245574301
internal_count=172 148 121 80 41 47
shrinkage=0.05


Tree=5
num_leaves=7
num_cat=0
split_feature=1 5 3 6 2 9
split_gain=440178616.95167488 42700384.563442618 40955159.405868888 37360144.271904148 28383772.625051651 3072242.3421027809
threshold=9.9999996826552254e-21 9.9999996826552254e-21 9.9999996826552254e-21 9.9999996826552254e-21 9.9999996826552254e-21 9.9999996826552254e-21
decision_type=2 2 2 2 2 2
left_child=1 2 3 4 5 -1
right_child=-2 -3 -4 -5 -6 -7
leaf_value=-42.922667048527643 -100 93.123367492675783 81.389537778108021 58.625374295161322 39.320455932617193 -18.615963548880355
leaf_count=26 26 25 23 26 20 26
internal_value=0 672.6997275352478 426.87997085791972 145.03356220284286 -225.99868802229562 -615.38630597407996
internal_count=172 146 121 98 72 52
shrinkage=0.05


Tree=6
num_leaves=6
num_cat=0
split_feature=1 7 8 8 8
split_gain=414229850.25493097 130361180.42667317 26658869.027969092 31059681.75718528 5172855.8582567871
threshold=9.9999996826552254e-21 9.9999996826552254e-21 8.9479907142857158 14.32261571428575 11.5356807142857
decision_type=2 2 2 2 2
left_child=1 2 -1 4 -4
right_child=-2 -3 3 -5 -6
leaf_value=0.12527601242065431 -100 -74.569425312678021 67.00716256806345 21.502375793457034 94.066402836849818
leaf_count=20 26 24 33 31 38
internal_value=0 639.06474450516373 1058.1703020314701 1265.1633964987361 1629.7914570553203
internal_count=172 146 122 102 71
shrinkage=0.05


Tree=7
num_leaves=6
num_cat=0
split_feature=1 7 8 8 8
split_gain=389381077.34053761 117650968.75705624 24059628.747052878 28031364.062142998 4668502.3001041412
threshold=9.9999996826552254e-21 9.9999996826552254e-21 8.9479907142857158 14.32261571428575 11.5356807142857
decision_type=2 2 2 2 2
left_child=1 2 -1 4 -4
right_child=-2 -3 3 -5 -6
leaf_value=0.1190126371383667 -100 -70.840955956776938 63.656804737900245 20.427255839686239 89.36308268496866
leaf_count=20 26 24 33 31 38
internal_value=0 607.11149851916582 1005.2617839594357 1201.9052214528999 1548.3018868674694
internal_count=172 146 122 102 71
shrinkage=0.05


Tree=8
num_leaves=6
num_cat=0
split_feature=1 7 8 8 8
split_gain=365587810.9613474 106179994.27511333 21713814.783841744 25325384.961011067 4850544.5267803073
threshold=9.9999996826552254e-21 9.9999996826552254e-21 8.9479907142857158 14.082578571428598 11.5356807142857
decision_type=2 2 2 2 2
left_child=1 2 -1 4 -4
right_child=-2 -3 3 -5 -6
leaf_value=0.11306183815002442 -100 -67.298905777931211 60.473963119044448 21.064541024872753 87.012781185573999
leaf_count=20 26 24 33 33 36
internal_value=0 576.75592568802506 954.99868790048072 1141.8099528293983 1486.4060595968494
internal_count=172 146 122 102 69
shrinkage=0.05


Tree=9
num_leaves=6
num_cat=0
split_feature=1 7 8 8 8
split_gain=342808573.99869132 95827448.926826179 19596717.417141229 23050412.64874965 6648550.6371679604
threshold=9.9999996826552254e-21 9.9999996826552254e-21 8.9479907142857158 13.673267142857149 11.5356807142857
decision_type=2 2 2 2 2
left_child=1 2 -1 4 -4
right_child=-2 -3 3 -5 -6
leaf_value=0.10740969181060792 -100 -63.933962368965155 57.450266701524917 24.026215421236479 89.972935180664066
leaf_count=20 26 24 33 39 30
internal_value=0 547.91813081911164 907.24876259584892 1084.7194623526404 1458.7450338318235
internal_count=172 146 122 102 63
shrinkage=0.05


Tree=10
num_leaves=7
num_cat=0
split_feature=1 7 8 9 8 8
split_gain=384493495.99487048 133019774.24978766 20843979.678592458 4892446.9557391405 2731583.8867397849 1124402.6333116144
threshold=9.9999996826552254e-21 9.9999996826552254e-21 10.579692857142849 9.9999996826552254e-21 8.9918364285714301 12.598230000000001
decision_type=2 2 2 2 2 2
left_child=1 2 4 5 -1 -4
right_child=-2 -3 3 -5 -6 -7
leaf_value=11.033098543257942 -100 -76.393476963043213 69.192366828918452 52.875741392193419 36.852404184341431 84.961512873722967
leaf_count=21 28 24 20 33 20 26
internal_value=0 621.25636711385516 1051.0815483887991 1351.3281360095061 472.55763565621726 1562.1072483892026
internal_count=172 144 120 79 41 46
shrinkage=0.05


Tree=11
num_leaves=7
num_cat=0
split_feature=1 7 8 9 8 8
split_gain=360010453.8365013 120050351.28867099 18811691.591594145 4415433.1881554574 2465254.3131718738 1014773.3612980694
threshold=9.9999996826552254e-21 9.9999996826552254e-21 10.579692857142849 9.9999996826552254e-21 8.9918364285714301 12.598230000000001
decision_type=2 2 2 2 2 2
left_child=1 2 4 5 -1 -4
right_child=-2 -3 3 -5 -6 -7
leaf_value=10.481443614051457 -100 -72.573806083202371 65.732747907638554 50.231954193115236 35.009783253669745 80.71343653752254
leaf_count=21 28 24 20 33 20 26
internal_value=0 590.19353214899695 998.52746291160588 1283.761720633205 448.9297468138904 1484.0018730992856
internal_count=172 144 120 79 41 46
shrinkage=0.05


Tree=12
num_leaves=7
num_cat=0
split_feature=1 7 8 9 8 8
split_gain=336608634.20930761 108345435.38505211 16977551.565050989 3984928.2973592579 2224891.9773488669 915833.08390462399
threshold=9.9999996826552254e-21 9.9999996826552254e-21 10.579692857142849 9.9999996826552254e-21 8.9918364285714301 12.598230000000001
decision_type=2 2 2 2 2 2
left_child=1 2 4 5 -1 -4
right_child=-2 -3 3 -5 -6 -7
leaf_value=9.9573713575090679 -100 -68.945112458864841 62.446109485626224 47.720356449936382 33.259293804168706 76.677764657827524
leaf_count=21 28 24 20 33 20 26
internal_value=0 560.68386239475672 948.60108470916748 1219.5736287756811 426.48325589808024 1409.8017699200175
internal_count=172 144 120 79 41 46
shrinkage=0.05


Tree=13
num_leaves=7
num_cat=0
split_feature=1 7 8 9 8 8
split_gain=314246409.92037868 97781756.705147535 15322241.141194806 3596397.8231156468 2007965.1840748768 826539.23188763857
threshold=9.9999996826552254e-21 9.9999996826552254e-21 10.579692857142849 9.9999996826552254e-21 8.9918364285714301 12.598230000000001
decision_type=2 2 2 2 2 2
left_child=1 2 4 5 -1 -4
right_child=-2 -3 3 -5 -6 -7
leaf_value=9.4595021929059708 -100 -65.497856990496317 59.323805561065676 45.334339488636367 31.59632947921753 72.843876941387478
leaf_count=21 28 24 20 33 20 26
internal_value=0 532.64967815081275 901.1710417429606 1158.5949657778197 405.15909055384196 1339.3117007379947
internal_count=172 144 120 79 41 46
shrinkage=0.05


Tree=14
num_leaves=7
num_cat=0
split_feature=1 8 5 6 3 2
split_gain=292884982.060862 30678031.745181888 10973385.06537769 11609751.79929243 14161425.517924327 7968093.5968733188
threshold=9.9999996826552254e-21 8.9479907142857158 9.9999996826552254e-21 9.9999996826552254e-21 9.9999996826552254e-21 9.9999996826552254e-21
decision_type=2 2 2 2 2 2
left_child=1 -1 3 4 5 -3
right_child=-2 2 -4 -5 -6 -7
leaf_value=-27.632721378492274 -100 -6.4241272424396714 69.199728412628176 61.74909947713217 54.133995957808068 32.565978984832768
leaf_count=23 28 38 20 21 22 20
internal_value=0 506.01718348926966 707.25228311207673 573.2439098169308 399.53766388893126 140.41473947722335
internal_count=172 144 121 101 80 58
shrinkage=0.05


Tree=15
num_leaves=6
num_cat=0
split_feature=1 7 8 8 8
split_gain=278390682.04001874 85571757.812464848 10424696.258334517 14054311.975679085 2541126.7773860544
threshold=9.9999996826552254e-21 9.9999996826552254e-21 14.082578571428598 10.579692857142849 12.598230000000001
decision_type=2 2 2 2 2
left_child=1 2 3 -1 -5
right_child=-2 -3 -4 4 -6
leaf_value=24.093941081197642 -100 -65.32511366208395 14.061491479295675 53.604543509850139 76.166454315185547
leaf_count=38 27 24 33 26 24
internal_value=0 418.41507404590476 760.54744045005361 940.29154452410614 1288.6852139282228
internal_count=172 145 121 88 50
shrinkage=0.05


Tree=16
num_leaves=6
num_cat=0
split_feature=1 7 8 8 8
split_gain=259472209.99304152 77228511.483734339 9445379.3951983377 12087864.436251491 1709154.1297581494
threshold=9.9999996826552254e-21 9.9999996826552254e-21 14.32261571428575 10.579692857142849 12.598230000000001
decision_type=2 2 2 2 2
left_child=1 2 3 -1 -5
right_child=-2 -3 -4 4 -6
leaf_value=22.889244260286034 -100 -62.058857854207361 12.323237400670207 50.924315584622896 69.053945655089166
leaf_count=38 27 24 31 26 26
internal_value=0 397.49432345423207 722.52007166019155 886.49468313852947 1199.7826123971206
internal_count=172 145 121 90 52
shrinkage=0.05


Tree=17
num_leaves=6
num_cat=0
split_feature=1 8 8 8 9
split_gain=241374413.08580548 25346411.478586476 22988300.071159609 7215099.064719595 5442444.6993218698
threshold=9.9999996826552254e-21 8.9479907142857158 14.32261571428575 12.598230000000001 9.9999996826552254e-21
decision_type=2 2 2 2 2
left_child=1 -1 3 4 -3
right_child=-2 2 -4 -5 -6
leaf_value=-30.548433130437679 -100 18.192764839529993 -4.6067084914759588 62.417939797763168 49.690579287211108
leaf_count=22 27 32 38 29 24
internal_value=0 377.61961108240587 554.44027792147506 843.49708985721361 633.83656348500938
internal_count=172 145 123 85 56
shrinkage=0.05


Tree=18
num_leaves=7
num_cat=0
split_feature=1 7 5 6 3 2
split_gain=224072698.19148546 69034719.290036082 8532146.7558654845 2987656.7182997875 5540835.4925021827 2873984.2105005961
threshold=9.9999996826552254e-21 9.9999996826552254e-21 9.9999996826552254e-21 9.9999996826552254e-21 9.9999996826552254e-21 9.9999996826552254e-21
decision_type=2 2 2 2 2 2
left_child=1 2 3 4 5 -1
right_child=-2 -3 -4 -5 -6 -7
leaf_value=0.35416503906250002 -100 -59.528304576873779 61.467130281708457 41.597345095414383 41.542146746317549 24.577537560462954
leaf_count=25 27 24 22 26 24 24
internal_value=0 358.73863147209431 666.03874182109985 540.86010541819564 437.18535598336831 244.3734805827238
internal_count=172 145 121 99 73 49
shrinkage=0.05


Tree=19
num_leaves=6
num_cat=0
split_feature=1 7 8 8 8
split_gain=207544101.54504392 62303832.52129133 7740544.8281242996 10244631.40101786 1769343.5672073364
threshold=9.9999996826552254e-21 9.9999996826552254e-21 14.082578571428598 10.579692857142849 12.598230000000001
decision_type=2 2 2 2 2
left_child=1 2 3 -1 -5
right_child=-2 -3 -4 4 -6
leaf_value=19.812014755449798 -100 -56.551888724168151 10.985537101283219 45.216862839918875 64.043328539530435
leaf_count=38 27 24 33 26 24
internal_value=0 340.80169302841711 632.73679402248922 787.62156352129853 1085.0713275146484
internal_count=172 145 121 88 50
shrinkage=0.05


Tree=20
num_leaves=7
num_cat=0
split_feature=1 7 8 8 8 8
split_gain=164457982.3435812 68089413.749054298 8095077.5684797466 5336859.4654146358 9641199.5153116882 930622.08080276847
threshold=9.9999996826552254e-21 9.9999996826552254e-21 8.9918364285714301 13.59112571428575 15.823615714285701 10.60300214285715
decision_type=2 2 2 2 2 2
left_child=1 2 -1 5 -5 -4
right_child=-2 -3 3 4 -6 -7
leaf_value=1.3374277782440185 -100 -56.032730508702144 38.069070928295453 -2.6682185363769531 45.297819380326708 50.779945543077261
leaf_count=20 22 28 24 20 22 36
internal_value=0 285.70073317209881 608.47081197285263 722.53399950382754 449.13697887602308 913.91191394329076
internal_count=172 150 122 102 42 60
shrinkage=0.05


Tree=21
num_leaves=8
num_cat=0
split_feature=1 8 8 8 8 11 8
split_gain=151869324.75593823 33502584.996864699 6285317.0207555369 2476953.5371843651 4850980.2505840212 5801483.1654055249 396449.75279527926
threshold=9.9999996826552254e-21 8.7604007142857157 14.32261571428575 10.07908357142855 12.671213571428549 9.9999996826552254e-21 17.644295
decision_type=2 2 2 2 2 2 2
left_child=1 -1 3 -3 5 -5 -4
right_child=-2 2 6 4 -6 -7 -8
leaf_value=-44.995643577121555 -100 44.231162548065186 11.619814457893373 -3.3702251979282929 43.288457711537681 34.257399673461912 1.6642914581298829
leaf_count=21 22 24 20 21 24 20 20
internal_value=0 271.41570049921671 462.09709594785704 610.07733720072201 508.70653827373798 299.69427527450932 132.84105916023253
internal_count=172 150 129 89 65 41 40
shrinkage=0.05


Tree=22
num_leaves=6
num_cat=0
split_feature=1 7 5 3 9
split_gain=139855835.44014817 60773503.53751871 4433186.2240022793 4969893.4774861448 3680547.8982780818
threshold=9.9999996826552254e-21 9.9999996826552254e-21 9.9999996826552254e-21 9.9999996826552254e-21 9.9999996826552254e-21
decision_type=2 2 2 2 2
left_child=1 2 3 4 -1
right_child=-2 -3 -4 -5 -6
leaf_value=26.440595398879637 -100 -53.540531524590087 46.453695473304165 42.883556048075363 3.6098698031517773
leaf_count=41 22 28 26 24 31
internal_value=0 257.84492266972859 562.78226273958796 463.57827508449554 332.2139931254917
internal_count=172 150 122 96 72
shrinkage=0.05


Tree=23
num_leaves=7
num_cat=0
split_feature=1 8 5 8 8 8
split_gain=128404629.7498381 30043559.972018898 8588583.589222841 7869908.8828297872 6222990.9267682992 581690.82193613797
threshold=9.9999996826552254e-21 8.7604007142857157 9.9999996826552254e-21 13.59112571428575 15.823615714285701 10.930175
decision_type=2 2 2 2 2 2
left_child=1 -1 3 5 -5 -3
right_child=-2 2 -4 4 -6 -7
leaf_value=-43.213057645161946 -100 31.561002562840784 48.972621278140856 -19.807921097495338 18.244546799432666 21.94114177010276
leaf_count=21 22 30 23 22 21 33
internal_value=0 244.9526737054189 425.5223664091539 305.32999508335905 -24.483154119447221 530.44055723765541
internal_count=172 150 129 106 43 63
shrinkage=0.05


Tree=24
num_leaves=7
num_cat=0
split_feature=1 8 5 8 8 8
split_gain=117503668.88023107 27114313.736825515 7751196.6408081055 7410709.7166054882 938641.88754205219 2806208.6626958903
threshold=9.9999996826552254e-21 8.7604007142857157 9.9999996826552254e-21 14.32261571428575 12.671213571428549 10.930175
decision_type=2 2 2 2 2 2
left_child=1 -1 3 4 5 -3
right_child=-2 2 -4 -5 -6 -7
leaf_value=-41.052405602591385 -100 29.982952283223472 46.523990266219435 -5.1598999485825052 32.621532373428344 6.7693053784577746
leaf_count=21 22 30 23 33 20 23
internal_value=0 232.70503997802734 404.24625077358513 290.06349837105228 467.83924374515061 398.1821102646162
internal_count=172 150 129 106 73 53
shrinkage=0.05



feature importances:
trend=65
xf1=22
xf7=19
xf5=9
sunny=7
xf2=6
xf3=6
xf6=6
rainy=1

pandas_categorical:[]