tree
num_class=1
num_tree_per_iteration=1
label_index=0
max_feature_idx=12
objective=regression
feature_names=holiday xf1 xf2 xf3 xf4 xf5 xf6 xf7 trend sunny cloudy rainy snowy
feature_infos=none [0:1] [0:1] [0:1] [0:1] [0:1] [0:1] [0:1] [11.291411428571401:61.253532857142893] [0:1] [0:1] [0:1] none

Tree=0
num_leaves=7
num_cat=0
split_feature=7 5 3 2 6 8
split_gain=17364763208.950939 4416315695.6154213 6659443350.1909513 7808499141.8789072 14344304104.169163 122407191.8927002
threshold=9.9999996826552254e-21 9.9999996826552254e-21 9.9999996826552254e-21 9.9999996826552254e-21 9.9999996826552254e-21 22.184784285714301
decision_type=2 2 2 2 2 2
left_child=1 2 3 4 5 -1
right_child=-2 -3 -4 -5 -6 -7
leaf_value=62998.72705078125 62998.72705078125 63198.72705078125 63198.72705078125 63198.72705078125 63198.72705078125 62998.72705078125
leaf_count=29 27 26 25 22 21 22
internal_value=0 4854.8044854525861 2275.1636234571952 -1582.7416628573803 -6620.8203803168399 -15678.105784696691
internal_count=172 145 119 94 72 51
shrinkage=1


Tree=1
num_leaves=7
num_cat=0
split_feature=7 5 6 2 8 8
split_gain=17202120194.447456 4363847790.5036221 4319162843.5249157 6669853088.5578842 610289165.76213551 993563385.29820085
threshold=9.9999996826552254e-21 9.9999996826552254e-21 9.9999996826552254e-21 9.9999996826552254e-21 17.239472142857149 25.041527857142853
decision_type=2 2 2 2 2 2
left_child=1 2 3 4 -1 -6
right_child=-2 -3 -4 -5 5 -7
leaf_value=-100 -100 100 100 100 42.567376077586211 -100
leaf_count=24 27 26 21 22 29 23
internal_value=0 4825.1493130387935 2260.877909171481 -527.9577188297194 -4966.5948357833058 -3041.4430213341348
internal_count=172 145 119 98 76 52
shrinkage=0.05


Tree=2
num_leaves=6
num_cat=0
split_feature=1 7 8 8 11
split_gain=35934706260.015038 27567017069.279518 1139575053.31884 367054376.08839035 189807152.2438488
threshold=9.9999996826552254e-21 9.9999996826552254e-21 25.041527857142853 20.049036428571448 9.9999996826552254e-21
decision_type=2 2 2 2 2
left_child=1 2 3 4 -1
right_child=-2 -3 -4 -5 -6
leaf_value=100 -100 -100 100 100 100
leaf_count=31 24 27 40 27 23
internal_value=0 6326.041329048775 12772.975368026859 14929.558816792052 13424.312075014468
internal_count=172 148 121 81 54
shrinkage=0.05


Tree=3
num_leaves=7
num_cat=0
split_feature=7 5 3 2 6 8
split_gain=16840385067.445536 4282859961.4876623 6574167934.3466597 7579271898.6819439 13932141636.283844 120805482.51738548
threshold=9.9999996826552254e-21 9.9999996826552254e-21 9.9999996826552254e-21 9.9999996826552254e-21 9.9999996826552254e-21 22.184784285714301
decision_type=2 2 2 2 2 2
left_child=1 2 3 4 5 -1
right_child=-2 -3 -4 -5 -6 -7
leaf_value=-100 -100 100 100 100 100 -100
leaf_count=29 27 26 25 22 21 22
internal_value=0 4734.5668507543105 2194.2017996651784 -1638.9233034823803 -6602.5019666883682 -15528.715083103554
internal_count=172 145 119 94 72 51
shrinkage=0.05


Tree=4
num_leaves=6
num_cat=0
split_feature=1 7 8 8 11
split_gain=35435878105.512932 27015368502.884743 1128967899.4967766 364050061.3000946 192371491.63933182
threshold=9.9999996826552254e-21 9.9999996826552254e-21 25.041527857142853 20.049036428571448 9.9999996826552254e-21
decision_type=2 2 2 2 2
left_child=1 2 3 4 -1
right_child=-2 -3 -4 -5 -6
leaf_value=100 -100 -100 100 100 100
leaf_count=31 24 27 40 27 23
internal_value=0 6235.50079510663 12617.603475271178 14764.126730082948 13265.052815755209
internal_count=172 148 121 81 54
shrinkage=0.05


Tree=5
num_leaves=7
num_cat=0
split_feature=1 5 3 6 2 9
split_gain=37232893250.520966 3496182365.5672722 4788217603.8744469 6259692535.5974302 8117755814.299531 343919801.0144062
threshold=9.9999996826552254e-21 9.9999996826552254e-21 9.9999996826552254e-21 9.9999996826552254e-21 9.9999996826552254e-21 9.9999996826552254e-21
decision_type=2 2 2 2 2 2
left_child=1 2 3 4 5 -1
right_child=-2 -3 -4 -5 -6 -7
leaf_value=-100 -100 100 100 100 100 -100
leaf_count=26 26 25 23 26 20 26
internal_value=0 6404.7110043878429 4180.387606534091 1132.8776407047194 -3669.8049926757813 -10254.945857121395
internal_count=172 146 121 98 72 52
shrinkage=0.05


Tree=6
num_leaves=6
num_cat=0
split_feature=1 7 8 8 11
split_gain=36999807370.814056 22813302293.182297 1702585008.9443169 478824792.44552612 343955021.51472664
threshold=9.9999996826552254e-21 9.9999996826552254e-21 26.240974999999999 20.049036428571448 9.9999996826552254e-21
decision_type=2 2 2 2 2
left_child=1 2 3 4 -1
right_child=-2 -3 -4 -5 -6
leaf_value=100 -100 -100 100 100 100
leaf_count=32 26 24 29 32 29
internal_value=0 6375.943881100171 11920.200903720543 14006.285959551411 12362.834384605532
internal_count=172 146 122 93 61
shrinkage=0.05


Tree=7
num_leaves=6
num_cat=0
split_feature=1 7 8 8 11
split_gain=36698383008.533073 22543544742.259239 1702585008.9443188 478824792.44552612 343955021.51472664
threshold=9.9999996826552254e-21 9.9999996826552254e-21 26.240974999999999 20.049036428571448 9.9999996826552254e-21
decision_type=2 2 2 2 2
left_child=1 2 3 4 -1
right_child=-2 -3 -4 -5 -6
leaf_value=100 -100 -100 100 100 100
leaf_count=32 26 24 29 32 29
internal_value=0 6308.8205934289381 11820.200903720543 13906.285959551411 12262.834384605532
internal_count=172 146 122 93 61
shrinkage=0.05


Tree=8
num_leaves=7
num_cat=0
split_feature=1 7 8 8 8 8
split_gain=36398191471.992775 22275391574.897831 1702585008.9443188 478824792.44552612 185849325.40625572 38578163.339972496
threshold=9.9999996826552254e-21 9.9999996826552254e-21 26.240974999999999 20.049036428571448 17.669412857142852 15.018002857142902
decision_type=2 2 2 2 2 2
left_child=1 2 3 4 5 -1
right_child=-2 -3 -4 -5 -6 -7
leaf_value=100 -100 -100 100 100 100 100
leaf_count=21 26 24 29 32 20 20
internal_value=0 6241.6973057577052 11720.200903720543 13806.285959551411 12162.834384605532 13381.932462366616
internal_count=172 146 122 93 61 41
shrinkage=0.05


Tree=9
num_leaves=6
num_cat=0
split_feature=1 7 8 8 11
split_gain=36099232895.294937 22008842791.098068 1702585008.9443188 478824792.44552612 343955021.51472664
threshold=9.9999996826552254e-21 9.9999996826552254e-21 26.240974999999999 20.049036428571448 9.9999996826552254e-21
decision_type=2 2 2 2 2
left_child=1 2 3 4 -1
right_child=-2 -3 -4 -5 -6
leaf_value=100 -100 -100 100 100 100
leaf_count=32 26 24 29 32 29
internal_value=0 6174.5740180864723 11620.200903720543 13706.285959551411 12062.834384605532
internal_count=172 146 122 93 61
shrinkage=0.05


Tree=10
num_leaves=6
num_cat=0
split_feature=1 7 8 8 8
split_gain=40696712602.960495 23741851119.869148 280185152.85603714 458551644.4496994 261450841.16182327
threshold=9.9999996826552254e-21 9.9999996826552254e-21 25.041527857142853 20.049036428571448 15.7064392857143
decision_type=2 2 2 2 2
left_child=1 2 3 4 -1
right_child=-2 -3 -4 -5 -6
leaf_value=100 -100 -100 100 100 100
leaf_count=28 28 24 32 29 31
internal_value=0 7384.5748358832461 13126.943094889322 14048.37997159091 12447.990135063559
internal_count=172 144 120 88 59
shrinkage=0.05


Tree=11
num_leaves=6
num_cat=0
split_feature=1 7 8 8 8
split_gain=40371786081.969795 23467017443.436855 280185152.85603714 458551644.4496994 261450841.16182327
threshold=9.9999996826552254e-21 9.9999996826552254e-21 25.041527857142853 20.049036428571448 15.7064392857143
decision_type=2 2 2 2 2
left_child=1 2 3 4 -1
right_child=-2 -3 -4 -5 -6
leaf_value=100 -100 -100 100 100 100
leaf_count=28 28 24 32 29 31
internal_value=0 7317.9081692165801 13026.943094889322 13948.37997159091 12347.990135063559
internal_count=172 144 120 88 59
shrinkage=0.05


Tree=12
num_leaves=6
num_cat=0
split_feature=1 7 8 8 8
split_gain=40048162022.823418 23193783767.004562 280185152.85603714 458551644.4496994 261450841.16182327
threshold=9.9999996826552254e-21 9.9999996826552254e-21 25.041527857142853 20.049036428571448 15.7064392857143
decision_type=2 2 2 2 2
left_child=1 2 3 4 -1
right_child=-2 -3 -4 -5 -6
leaf_value=100 -100 -100 100 100 100
leaf_count=28 28 24 32 29 31
internal_value=0 7251.2415025499131 12926.943094889322 13848.37997159091 12247.990135063559
internal_count=172 144 120 88 59
shrinkage=0.05


Tree=13
num_leaves=6
num_cat=0
split_feature=1 7 8 8 8
split_gain=39725840423.886185 22922150090.572273 280185152.85603714 458551644.4496994 261450841.16182327
threshold=9.9999996826552254e-21 9.9999996826552254e-21 25.041527857142853 20.049036428571448 15.7064392857143
decision_type=2 2 2 2 2
left_child=1 2 3 4 -1
right_child=-2 -3 -4 -5 -6
leaf_value=100 -100 -100 100 100 100
leaf_count=28 28 24 32 29 31
internal_value=0 7184.5748358832461 12826.943094889322 13748.37997159091 12147.990135063559
internal_count=172 144 120 88 59
shrinkage=0.05


Tree=14
num_leaves=7
num_cat=0
split_feature=1 3 5 6 2 9
split_gain=39404821015.357544 2125178269.4400768 3004797127.8430276 4224075893.2533689 6989711034.6821814 670168818.02658033
threshold=9.9999996826552254e-21 9.9999996826552254e-21 9.9999996826552254e-21 9.9999996826552254e-21 9.9999996826552254e-21 9.9999996826552254e-21
decision_type=2 2 2 2 2 2
left_child=1 2 3 4 5 -1
right_child=-2 -3 -4 -5 -6 -7
leaf_value=-100 -100 100 100 100 100 -100
leaf_count=22 28 26 23 24 24 25
internal_value=0 7117.9081692165801 5314.6325642213988 2831.6784745065788 -1045.1849348041374 -8135.3627721908242
internal_count=172 144 118 95 71 47
shrinkage=0.05


Tree=15
num_leaves=6
num_cat=0
split_feature=1 7 8 8 8
split_gain=36079143651.626999 21369529935.613441 1828217922.1850986 340527858.92703438 176789197.15520191
threshold=9.9999996826552254e-21 9.9999996826552254e-21 25.041527857142853 20.049036428571448 15.465885
decision_type=2 2 2 2 2
left_child=1 2 3 4 -1
right_child=-2 -3 -4 -5 -6
leaf_value=100 -100 -100 100 100 100
leaf_count=22 27 24 35 30 34
internal_value=0 5769.3650356950429 11175.992163287707 13655.731848428415 12199.288112095424
internal_count=172 145 121 86 56
shrinkage=0.05


Tree=16
num_leaves=6
num_cat=0
split_feature=1 7 8 8 8
split_gain=35777290369.396347 21108650280.83865 1828217919.7634811 340527860.34933853 176789198.55094624
threshold=9.9999996826552254e-21 9.9999996826552254e-21 25.041527857142853 20.049036428571448 15.465885
decision_type=2 2 2 2 2
left_child=1 2 3 4 -1
right_child=-2 -3 -4 -5 -6
leaf_value=100 -100 -100 100 100 100
leaf_count=22 27 24 35 30 34
internal_value=0 5702.4684806034484 11075.992159252324 13555.731842750727 12099.288103376117
internal_count=172 145 121 86 56
shrinkage=0.05


Tree=17
num_leaves=7
num_cat=0
split_feature=1 5 3 6 2 8
split_gain=35476705118.93055 2739729598.2701864 3596910643.4088364 5712815369.394207 8826374372.2226715 614435524.24755287
threshold=9.9999996826552254e-21 9.9999996826552254e-21 9.9999996826552254e-21 9.9999996826552254e-21 9.9999996826552254e-21 22.935683571428552
decision_type=2 2 2 2 2 2
left_child=1 2 3 4 5 -1
right_child=-2 -3 -4 -5 -6 -7
leaf_value=-100 -100 100 100 100 100 -100
leaf_count=27 27 22 24 26 24 22
internal_value=0 5635.5719288793107 3797.2200878112299 1134.6546371922348 -3398.8361849850171 -11094.344696667729
internal_count=172 145 123 99 73 49
shrinkage=0.05


Tree=18
num_leaves=7
num_cat=0
split_feature=1 7 5 3 6 2
split_gain=35239126366.51474 20644804968.136662 644631674.26987267 745518017.3657589 1197878764.0178566 2205346758.0545197
threshold=9.9999996826552254e-21 9.9999996826552254e-21 9.9999996826552254e-21 9.9999996826552254e-21 9.9999996826552254e-21 9.9999996826552254e-21
decision_type=2 2 2 2 2 2
left_child=1 2 3 4 5 -1
right_child=-2 -3 -4 -5 -6 -7
leaf_value=-60.371537109375005 -100 -100 100 100 100 100
leaf_count=25 27 24 22 24 26 24
internal_value=0 5603.1581357758623 10917.314473301911 9829.2443675031573 8276.9057421875004 5365.7567362882655
internal_count=172 145 121 99 75 49
shrinkage=0.05


Tree=19
num_leaves=6
num_cat=0
split_feature=1 7 8 8 8
split_gain=34990149537.3825 20430769304.468464 1792748712.0501003 336968162.57237625 178008702.92148972
threshold=9.9999996826552254e-21 9.9999996826552254e-21 25.041527857142853 20.049036428571448 15.465885
decision_type=2 2 2 2 2
left_child=1 2 3 4 -1
right_child=-2 -3 -4 -5 -6
leaf_value=100 -100 -100 100 100 100
leaf_count=22 27 24 35 30 34
internal_value=0 5563.9117726293107 10850.448996803978 13306.016181413517 11857.204886300224
internal_count=172 145 121 86 56
shrinkage=0.05


Tree=20
num_leaves=7
num_cat=0
split_feature=1 7 8 8 8 9
split_gain=29219086050.853519 24957898099.897255 670593411.96932411 390320105.19614983 295502648.35121155 102843098.95632935
threshold=9.9999996826552254e-21 9.9999996826552254e-21 28.408618571428597 20.049036428571448 15.7064392857143 9.9999996826552254e-21
decision_type=2 2 2 2 2 2
left_child=1 2 3 4 -1 -5
right_child=-2 -3 -4 5 -6 -7
leaf_value=100 -100 -100 100 100 100 100
leaf_count=25 22 28 20 22 33 22
internal_value=0 5394.0369303385414 11573.595807184938 12611.756634880514 10907.94053912985 14857.696033824574
internal_count=172 150 122 102 58 44
shrinkage=0.05


Tree=21
num_leaves=7
num_cat=0
split_feature=1 3 2 6 11 8
split_gain=28976006432.509438 2610064771.7209182 2315735188.8446722 3746430093.5765386 249555685.53171813 379895585.59083045
threshold=9.9999996826552254e-21 9.9999996826552254e-21 9.9999996826552254e-21 9.9999996826552254e-21 9.9999996826552254e-21 20.049036428571448
decision_type=2 2 2 2 2 2
left_child=1 2 3 4 5 -1
right_child=-2 -3 -4 -5 -6 -7
leaf_value=-100 -100 100 100 100 28.8000673828125 -52.200828503024198
leaf_count=21 22 24 26 23 25 31
internal_value=0 5331.3702636718754 3510.8296944754466 1324.8513818359374 -2020.3893186891235 -3268.6540621243989
internal_count=172 150 126 100 77 52
shrinkage=0.05


Tree=22
num_leaves=7
num_cat=0
split_feature=1 7 5 3 6 2
split_gain=28784435879.752369 24508006191.175697 398298175.96115494 592568311.15837669 384400845.74100494 1048096434.761003
threshold=9.9999996826552254e-21 9.9999996826552254e-21 9.9999996826552254e-21 9.9999996826552254e-21 9.9999996826552254e-21 9.9999996826552254e-21
decision_type=2 2 2 2 2 2
left_child=1 2 3 4 5 -1
right_child=-2 -3 -4 -5 -6 -7
leaf_value=100 -100 -100 100 100 100 100
leaf_count=23 22 28 26 24 23 26
internal_value=0 5302.6916569010418 11426.30078125 10485.981587727865 9051.5726996527774 7468.5330337213009
internal_count=172 150 122 96 72 49
shrinkage=0.05


Tree=23
num_leaves=7
num_cat=0
split_feature=1 5 3 2 6 8
split_gain=28543174797.952255 2873407971.0127935 3903878036.0314336 4432063674.5104656 8313420573.885747 166047185.04516029
threshold=9.9999996826552254e-21 9.9999996826552254e-21 9.9999996826552254e-21 9.9999996826552254e-21 9.9999996826552254e-21 20.244402857142852
decision_type=2 2 2 2 2 2
left_child=1 2 3 4 5 -1
right_child=-2 -3 -4 -5 -6 -7
leaf_value=-100 -100 100 100 100 100 -100
leaf_count=22 22 26 24 26 23 29
internal_value=0 5240.0249902343749 3235.8813358429938 487.08287597656249 -3459.0691247888512 -10576.984920726103
internal_count=172 150 124 100 74 51
shrinkage=0.05


Tree=24
num_leaves=7
num_cat=0
split_feature=1 5 2 6 9 8
split_gain=28348143749.33083 2832668874.6645217 2321445352.1632853 3793250284.0018139 1015999836.3720008 6758967.2844467275
threshold=9.9999996826552254e-21 9.9999996826552254e-21 9.9999996826552254e-21 9.9999996826552254e-21 9.9999996826552254e-21 20.572007142857103
decision_type=2 2 2 2 2 2
left_child=1 2 3 4 5 -1
right_child=-2 -3 -4 -5 -6 -7
leaf_value=24.982511393229167 -100 100 100 100 -100 65.596669921875005
leaf_count=21 22 26 26 23 34 20
internal_value=0 5208.0249869791669 3218.1393964213707 989.48859514508933 -2455.8031054687499 895.88592082698176
internal_count=172 150 124 98 75 41
shrinkage=0.05


Tree=25
num_leaves=6
num_cat=0
split_feature=1 7 8 8 11
split_gain=34145247748.855431 17438281208.013763 1933944759.1321087 356327947.43083 176035082.77038288
threshold=9.9999996826552254e-21 9.9999996826552254e-21 25.041527857142853 20.049036428571448 9.9999996826552254e-21
decision_type=2 2 2 2 2
left_child=1 2 3 4 -1
right_child=-2 -3 -4 -5 -6
leaf_value=100 -100 -100 100 100 100
leaf_count=28 29 24 37 28 26
internal_value=0 4767.5559816160403 9726.8054999343494 12434.767012433307 10933.699752242477
internal_count=172 143 119 82 54
shrinkage=0.05


Tree=26
num_leaves=7
num_cat=0
split_feature=1 7 5 3 6 9
split_gain=33843893415.693153 17203019859.762215 737695357.78809929 907976968.65571976 940694524.0711813 78725880.763749838
threshold=9.9999996826552254e-21 9.9999996826552254e-21 9.9999996826552254e-21 9.9999996826552254e-21 9.9999996826552254e-21 9.9999996826552254e-21
decision_type=2 2 2 2 2 2
left_child=1 2 3 4 5 -1
right_child=-2 -3 -4 -5 -6 -7
leaf_value=100 -100 -100 100 100 100 100
leaf_count=33 29 24 22 22 22 20
internal_value=0 4701.1224083533652 9626.8054999343494 8441.0626409471643 6784.0254427083337 4502.2805774616745
internal_count=172 143 119 97 75 53
shrinkage=0.05


Tree=27
num_leaves=6
num_cat=0
split_feature=1 7 8 8 8
split_gain=33543874808.774822 16969356216.166927 1933944753.8431206 356327950.36260223 100262784.76190853
threshold=9.9999996826552254e-21 9.9999996826552254e-21 25.041527857142853 20.049036428571448 16.53907428571425
decision_type=2 2 2 2 2
left_child=1 2 3 4 -1
right_child=-2 -3 -4 -5 -6
leaf_value=100 -100 -100 100 100 100
leaf_count=28 29 24 37 28 26
internal_value=0 4634.6888350906902 9526.8054917279405 12234.767000524009 10733.699734157986
internal_count=172 143 119 82 54
shrinkage=0.05


Tree=28
num_leaves=7
num_cat=0
split_feature=7 5 3 6 2 11
split_gain=8866575524.4066238 4679025457.6692934 6029811771.5749826 7516956986.778492 13435873016.561028 136093231.14023209
threshold=9.9999996826552254e-21 9.9999996826552254e-21 9.9999996826552254e-21 9.9999996826552254e-21 9.9999996826552254e-21 9.9999996826552254e-21
decision_type=2 2 2 2 2 2
left_child=1 2 3 4 5 -1
right_child=-2 -3 -4 -5 -6 -7
leaf_value=-100 -100 100 100 100 100 -100
leaf_count=35 24 22 22 22 24 23
internal_value=0 1198.7048141891892 -1150.7814708891369 -4332.4964740459736 -8736.1057426638727 -16970.234299232219
internal_count=172 148 126 104 82 58
shrinkage=0.05


Tree=29
num_leaves=6
num_cat=0
split_feature=1 7 8 8 11
split_gain=33020184321.424675 16562839538.014765 1913156932.9639893 353204029.93771362 177913747.16876888
threshold=9.9999996826552254e-21 9.9999996826552254e-21 25.041527857142853 20.049036428571448 9.9999996826552254e-21
decision_type=2 2 2 2 2
left_child=1 2 3 4 -1
right_child=-2 -3 -4 -5 -6
leaf_value=100 -100 -100 100 100 100
leaf_count=28 29 24 37 28 26
internal_value=0 4542.3811359538895 9375.5449875262602 12068.913341987423 10574.440474898727
internal_count=172 143 119 82 54
shrinkage=0.05


Tree=30
num_leaves=6
num_cat=0
split_feature=1 7 8 8 11
split_gain=30120529415.827339 18194063685.518929 1167575638.5380764 899674438.24011421 315014872.24337864
threshold=9.9999996826552254e-21 9.9999996826552254e-21 25.041527857142853 20.049036428571448 9.9999996826552254e-21
decision_type=2 2 2 2 2
left_child=1 2 3 4 -1
right_child=-2 -3 -4 -5 -6
leaf_value=100 -100 -100 100 100 100
leaf_count=26 26 24 39 28 29
internal_value=0 4717.5543756354346 9668.796138575819 11789.381965361446 9440.2829900568177
internal_count=172 146 122 83 55
shrinkage=0.05


Tree=31
num_leaves=5
num_cat=0
split_feature=1 7 9 10
split_gain=29848626603.736233 17953245279.268257 757589677.54944038 3019872.840824604
threshold=9.9999996826552254e-21 9.9999996826552254e-21 9.9999996826552254e-21 9.9999996826552254e-21
decision_type=2 2 2 2
left_child=1 2 3 -1
right_child=-2 -3 -4 -5
leaf_value=100 -100 -100 100 100
leaf_count=48 26 24 54 20
internal_value=0 4650.4310879642017 9568.796138575819 7348.1491124770218
internal_count=172 146 122 68
shrinkage=0.05


Tree=32
num_leaves=6
num_cat=0
split_feature=1 7 8 8 11
split_gain=29577956601.17326 17714031242.266277 1167575645.2817268 899674440.53415489 315014869.7750864
threshold=9.9999996826552254e-21 9.9999996826552254e-21 25.041527857142853 20.049036428571448 9.9999996826552254e-21
decision_type=2 2 2 2 2
left_child=1 2 3 4 -1
right_child=-2 -3 -4 -5 -6
leaf_value=100 -100 -100 100 100 100
leaf_count=26 26 24 39 28 29
internal_value=0 4583.3077902597925 9468.7961265689046 11589.38195947854 9240.2829811789779
internal_count=172 146 122 83 55
shrinkage=0.05


Tree=33
num_leaves=5
num_cat=0
split_feature=1 7 9 10
split_gain=29308519451.396553 17476421612.712975 757589674.81860924 3019871.9375014305
threshold=9.9999996826552254e-21 9.9999996826552254e-21 9.9999996826552254e-21 9.9999996826552254e-21
decision_type=2 2 2 2
left_child=1 2 3 -1
right_child=-2 -3 -4 -5
leaf_value=100 -100 -100 100 100
leaf_count=48 26 24 54 20
internal_value=0 4516.1845092773438 9368.7961345735148 7148.1491124770218
internal_count=172 146 122 68
shrinkage=0.05


Tree=34
num_leaves=7
num_cat=0
split_feature=1 5 3 6 2 8
split_gain=29040315111.197323 2857625843.6249986 3948497873.9136324 5125079365.501689 6422812008.6608448 855194872.83399963
threshold=9.9999996826552254e-21 9.9999996826552254e-21 9.9999996826552254e-21 9.9999996826552254e-21 9.9999996826552254e-21 22.687155714285701
decision_type=2 2 2 2 2 2
left_child=1 2 3 4 5 -1
right_child=-2 -3 -4 -5 -6 -7
leaf_value=-100 -100 100 100 100 100 -100
leaf_count=28 26 28 21 25 21 23
internal_value=0 4449.0612182617188 2293.9769007795949 -397.55003750201354 -4680.7483876546221 -10741.422279507506
internal_count=172 146 118 97 72 51
shrinkage=0.05


Tree=35
num_leaves=7
num_cat=0
split_feature=1 7 5 8 8 8
split_gain=31461566666.05809 19826612823.039227 259205408.14215469 419166759.48127747 320779590.29593468 22205739.105605125
threshold=9.9999996826552254e-21 9.9999996826552254e-21 9.9999996826552254e-21 25.041527857142853 20.049036428571448 15.7064392857143
decision_type=2 2 2 2 2 2
left_child=1 2 3 4 5 -1
right_child=-2 -3 -4 -5 -6 -7
leaf_value=100 -100 -100 100 100 100 100
leaf_count=21 26 24 29 27 22 23
internal_value=0 5903.6348417099207 11072.2421875 10258.288605720767 11616.170062440815 10057.276733398438
internal_count=172 146 122 93 66 44
shrinkage=0.05


Tree=36
num_leaves=6
num_cat=0
split_feature=1 5 6 2 9
split_gain=31183663304.696625 2171298243.4425535 2115582072.9472818 2192498670.3817797 477583986.36001533
threshold=9.9999996826552254e-21 9.9999996826552254e-21 9.9999996826552254e-21 9.9999996826552254e-21 9.9999996826552254e-21
decision_type=2 2 2 2 2
left_child=1 2 3 4 -1
right_child=-2 -3 -4 -5 -6
leaf_value=79.787130906846798 -100 100 100 100 -100
leaf_count=36 26 29 26 20 35
internal_value=0 5836.5115473499036 3916.5639262403179 1643.6238503927714 -961.53852092044451
internal_count=172 146 117 91 71
shrinkage=0.05


Tree=37
num_leaves=7
num_cat=0
split_feature=1 7 5 8 8 8
split_gain=30940124275.376389 19433529539.377937 252435506.87144089 419479502.26710892 321901616.51953506 22785119.621652603
threshold=9.9999996826552254e-21 9.9999996826552254e-21 9.9999996826552254e-21 25.041527857142853 20.049036428571448 15.7064392857143
decision_type=2 2 2 2 2 2
left_child=1 2 3 4 5 -1
right_child=-2 -3 -4 -5 -6 -7
leaf_value=100 -100 -100 100 100 100 100
leaf_count=21 26 24 29 27 22 23
internal_value=0 5789.4407097803405 10906.555035700563 10103.301159274193 11461.689083214962 9900.07177734375
internal_count=172 146 122 93 66 44
shrinkage=0.05


Tree=38
num_leaves=7
num_cat=0
split_feature=1 5 3 6 2 9
split_gain=30664538643.843693 2123459793.6582537 2763122138.2685099 3906044152.0050755 5223023060.0469131 68571819.482503891
threshold=9.9999996826552254e-21 9.9999996826552254e-21 9.9999996826552254e-21 9.9999996826552254e-21 9.9999996826552254e-21 9.9999996826552254e-21
decision_type=2 2 2 2 2 2
left_child=1 2 3 4 5 -1
right_child=-2 -3 -4 -5 -6 -7
leaf_value=-100 -100 100 100 100 100 -100
leaf_count=20 26 29 25 26 20 26
internal_value=0 5722.3174154203234 3823.637915456397 1290.3578769849694 -2799.3224894205728 -8665.0932431428337
internal_count=172 146 117 92 66 46
shrinkage=0.05


Tree=39
num_leaves=7
num_cat=0
split_feature=1 7 5 8 8 8
split_gain=30439568192.075813 18981786000.129868 245416357.82420158 414603555.30270195 321277275.67456245 22044680.441597939
threshold=9.9999996826552254e-21 9.9999996826552254e-21 9.9999996826552254e-21 25.041527857142853 20.049036428571448 15.7064392857143
decision_type=2 2 2 2 2 2
left_child=1 2 3 4 5 -1
right_child=-2 -3 -4 -5 -6 -7
leaf_value=100 -100 -100 100 100 100 100
leaf_count=21 26 24 29 27 22 23
internal_value=0 5685.3311140504602 10742.620601466444 9950.6129767305101 11301.0830078125 9740.980846058239
internal_count=172 146 122 93 66 44
shrinkage=0.05


Tree=40
num_leaves=6
num_cat=0
split_feature=1 7 8 8 11
split_gain=26069740388.635834 16501148938.177145 1509924322.5502033 455100844.53126335 201565182.466712
threshold=9.9999996826552254e-21 9.9999996826552254e-21 25.041527857142853 20.049036428571448 9.9999996826552254e-21
decision_type=2 2 2 2 2
left_child=1 2 3 4 -1
right_child=-2 -3 -4 -5 -6
leaf_value=100 -100 -100 100 100 100
leaf_count=29 25 27 38 26 27
internal_value=0 3730.9630625199297 8756.5834838867195 11171.331620379193 9566.0931658063619
internal_count=172 147 120 82 56
shrinkage=0.05


Tree=41
num_leaves=7
num_cat=0
split_feature=7 3 6 5 2 9
split_gain=9386512686.6367512 3858800258.6153259 4719644444.5712757 7265249708.01091 11895415880.990177 518591083.20691872
threshold=9.9999996826552254e-21 9.9999996826552254e-21 9.9999996826552254e-21 9.9999996826552254e-21 9.9999996826552254e-21 9.9999996826552254e-21
decision_type=2 2 2 2 2 2
left_child=1 2 3 4 5 -1
right_child=-2 -3 -4 -5 -6 -7
leaf_value=-100 -100 100 100 100 100 -100
leaf_count=25 27 27 27 20 23 23
internal_value=0 1802.0924030172414 -665.55455922272245 -4110.4403116414833 -8852.7553367077471 -17812.671376546223
internal_count=172 145 118 91 71 48
shrinkage=0.05


Tree=42
num_leaves=6
num_cat=0
split_feature=1 7 8 8 11
split_gain=25630910761.314167 16067808080.759552 1495571774.9943562 456138668.09645081 203658844.59495735
threshold=9.9999996826552254e-21 9.9999996826552254e-21 25.041527857142853 20.049036428571448 9.9999996826552254e-21
decision_type=2 2 2 2 2
left_child=1 2 3 4 -1
right_child=-2 -3 -4 -5 -6
leaf_value=100 -100 -100 100 100 100
leaf_count=29 25 27 38 26 27
internal_value=0 3635.7249639601932 8594.9168131510414 10998.160882717226 9391.0931570870544
internal_count=172 147 120 82 56
shrinkage=0.05


Tree=43
num_leaves=7
num_cat=0
split_feature=1 5 6 2 8 8
split_gain=25389839442.659344 1855302141.4641287 2525683768.308856 2869187504.8609552 1851938571.5431714 96771267.87909694
threshold=9.9999996826552254e-21 9.9999996826552254e-21 9.9999996826552254e-21 9.9999996826552254e-21 21.114915000000003 17.087298571428548
decision_type=2 2 2 2 2 2
left_child=1 2 3 4 5 -1
right_child=-2 -3 -4 -5 -6 -7
leaf_value=0.70272013346354179 -100 100 100 100 -100 100
leaf_count=21 25 20 27 23 36 20
internal_value=0 3572.4596644810267 2162.6457490695743 -154.58620239257812 -3082.0937325613841 1513.3478319121571
internal_count=172 147 127 100 77 41
shrinkage=0.05


Tree=44
num_leaves=6
num_cat=0
split_feature=1 7 8 8 11
split_gain=25188671194.697819 15740251471.485718 1469359823.9206581 458916630.2455368 206143183.08689213
threshold=9.9999996826552254e-21 9.9999996826552254e-21 25.041527857142853 20.049036428571448 9.9999996826552254e-21
decision_type=2 2 2 2 2
left_child=1 2 3 4 -1
right_child=-2 -3 -4 -5 -6
leaf_value=100 -100 -100 100 100 100
leaf_count=29 25 27 38 26 27
internal_value=0 3535.624543689546 8444.0073364257805 10826.098233850991 9214.1442783900675
internal_count=172 147 120 82 56
shrinkage=0.05


Tree=45
num_leaves=7
num_cat=0
split_feature=1 7 4 8 8 11
split_gain=23053765684.924828 13704180872.203684 1394260131.212923 1815596875.0551519 571097080.97192764 264913400.61276579
threshold=9.9999996826552254e-21 9.9999996826552254e-21 9.9999996826552254e-21 25.041527857142853 20.049036428571448 9.9999996826552254e-21
decision_type=2 2 2 2 2 2
left_child=1 2 3 4 5 -1
right_child=-2 -3 -4 -5 -6 -7
leaf_value=100 -100 -100 100 11.013972077546297 100 100
leaf_count=28 21 20 20 27 28 28
internal_value=0 5016.2907925031041 8738.6426042163639 7353.8339623803495 9646.7622012183783 7803.0194353376119
internal_count=172 151 131 111 84 56
shrinkage=0.05


Tree=46
num_leaves=7
num_cat=0
split_feature=7 4 5 3 2 6
split_gain=8985397938.816597 3917349296.7672749 4606308257.2917423 5565975083.1974754 9597382490.7459335 21080625741.373585
threshold=9.9999996826552254e-21 9.9999996826552254e-21 9.9999996826552254e-21 9.9999996826552254e-21 9.9999996826552254e-21 9.9999996826552254e-21
decision_type=2 2 2 2 2 2
left_child=1 2 3 4 5 -1
right_child=-2 -3 -4 -5 -6 -7
leaf_value=-100 -100 100 100 100 100 100
leaf_count=31 20 20 29 22 28 22
internal_value=0 3282.266696327611 1306.1964129823627 -1828.3154652419601 -5659.392171223958 -13571.186210200472
internal_count=172 152 132 103 81 53
shrinkage=0.05


Tree=47
num_leaves=7
num_cat=0
split_feature=1 7 4 8 8 11
split_gain=22641175330.192909 13349183892.163227 1382093205.5291958 1764461116.7196321 568886737.90114021 262309839.17651415
threshold=9.9999996826552254e-21 9.9999996826552254e-21 9.9999996826552254e-21 25.041527857142853 20.049036428571448 9.9999996826552254e-21
decision_type=2 2 2 2 2 2
left_child=1 2 3 4 5 -1
right_child=-2 -3 -4 -5 -6 -7
leaf_value=100 -100 -100 100 8.0558724862557867 100 100
leaf_count=28 21 20 20 27 28 28
internal_value=0 4898.4273802902526 8572.250426780176 7193.4972484691725 9453.9050409226184 7613.7336948939728
internal_count=172 151 131 111 84 56
shrinkage=0.05


Tree=48
num_leaves=7
num_cat=0
split_feature=1 4 3 2 6 8
split_gain=22438672547.137474 2934828474.5987906 2125805358.1982267 2308414486.9470687 3867827279.117672 1213177507.5282633
threshold=9.9999996826552254e-21 9.9999996826552254e-21 9.9999996826552254e-21 9.9999996826552254e-21 9.9999996826552254e-21 22.184784285714301
decision_type=2 2 2 2 2 2
left_child=1 2 3 4 5 -1
right_child=-2 -3 -4 -5 -6 -7
leaf_value=-57.900269368489582 -100 100 100 100 100 -100
leaf_count=30 21 20 22 28 22 29
internal_value=0 4841.3578390159355 3118.7665829258112 1308.9932178182339 -1396.7099669656636 -5616.3593005164194
internal_count=172 151 131 109 81 59
shrinkage=0.05


Tree=49
num_leaves=7
num_cat=0
split_feature=1 7 4 5 3 2
split_gain=22271477321.437225 13053118644.937801 1356298537.9000015 1086197807.4123745 1377029941.0217614 2083571801.7661333
threshold=9.9999996826552254e-21 9.9999996826552254e-21 9.9999996826552254e-21 9.9999996826552254e-21 9.9999996826552254e-21 9.9999996826552254e-21
decision_type=2 2 2 2 2 2
left_child=1 2 3 4 5 -1
right_child=-2 -3 -4 -5 -6 -7
leaf_value=-100 -100 -100 100 100 100 100
leaf_count=32 21 20 20 29 22 28
internal_value=0 4811.1393436659255 8443.9939682356271 7078.1675541508303 5217.8587378525153 2736.4375813802085
internal_count=172 151 131 111 82 60
shrinkage=0.05


Tree=50
num_leaves=7
num_cat=0
split_feature=7 3 5 6 8 11
split_gain=9009255000.8250618 3876445202.9820127 5259120319.6856756 7311705192.1497393 285806664.19914055 378727218.48658228
threshold=9.9999996826552254e-21 9.9999996826552254e-21 9.9999996826552254e-21 9.9999996826552254e-21 26.240974999999999 9.9999996826552254e-21
decision_type=2 2 2 2 2 2
left_child=1 2 3 4 5 -1
right_child=-2 -3 -4 -5 -6 -7
leaf_value=-100 -100 100 100 100 -100 -100
leaf_count=33 23 24 24 25 20 23
internal_value=0 753.91926564466235 -1481.0641494140625 -4642.9521387685645 -9522.8626451994242 -8363.9509015764506
internal_count=172 149 125 101 76 56
shrinkage=0.05


Tree=51
num_leaves=6
num_cat=0
split_feature=1 7 8 8 11
split_gain=28363807643.751053 16124208516.560907 711372850.54729271 561923184.91815948 311516023.77482367
threshold=9.9999996826552254e-21 9.9999996826552254e-21 26.240974999999999 20.049036428571448 9.9999996826552254e-21
decision_type=2 2 2 2 2
left_child=1 2 3 4 -1
right_child=-2 -3 -4 -5 -6
leaf_value=100 -100 -100 100 100 100
leaf_count=30 30 23 32 32 25
internal_value=0 3828.0297980510013 8512.7695302241991 9995.5966670595371 8057.0668124112217
internal_count=172 142 119 87 55
shrinkage=0.05


Tree=52
num_leaves=6
num_cat=0
split_feature=1 7 8 8 11
split_gain=28083545394.272343 15901985909.39818 711372834.79949665 561923184.91815948 311516028.44239473
threshold=9.9999996826552254e-21 9.9999996826552254e-21 26.240974999999999 20.049036428571448 9.9999996826552254e-21
decision_type=2 2 2 2 2
left_child=1 2 3 4 -1
right_child=-2 -3 -4 -5 -6
leaf_value=100 -100 -100 100 100 100
leaf_count=30 30 23 32 32 25
internal_value=0 3760.4241780025859 8412.7695466370151 9895.5966670595371 7957.0668124112217
internal_count=172 142 119 87 55
shrinkage=0.05


Tree=53
num_leaves=6
num_cat=0
split_feature=1 7 8 8 8
split_gain=27804674638.278179 15681305255.766674 711372834.79949665 561923184.91815948 201140593.58535671
threshold=9.9999996826552254e-21 9.9999996826552254e-21 26.240974999999999 20.049036428571448 16.53907428571425
decision_type=2 2 2 2 2
left_child=1 2 3 4 -1
right_child=-2 -3 -4 -5 -6
leaf_value=100 -100 -100 100 100 100
leaf_count=31 30 23 32 32 24
internal_value=0 3692.8185441997689 8312.7695466370151 9795.5966670595371 7857.0668124112217
internal_count=172 142 119 87 55
shrinkage=0.05


Tree=54
num_leaves=6
num_cat=0
split_feature=1 7 8 8 11
split_gain=27527195506.337963 15462166573.966154 711372834.79949665 561923184.91815948 311516028.44239473
threshold=9.9999996826552254e-21 9.9999996826552254e-21 26.240974999999999 20.049036428571448 9.9999996826552254e-21
decision_type=2 2 2 2 2
left_child=1 2 3 4 -1
right_child=-2 -3 -4 -5 -6
leaf_value=100 -100 -100 100 100 100
leaf_count=30 30 23 32 32 25
internal_value=0 3625.2129103969519 8212.7695466370151 9695.5966670595371 7757.0668124112217
internal_count=172 142 119 87 55
shrinkage=0.05


Tree=55
num_leaves=6
num_cat=0
split_feature=1 7 8 8 11
split_gain=25592588619.623558 13286282218.306849 717276167.48982716 845643758.64232731 310933477.86400175
threshold=9.9999996826552254e-21 9.9999996826552254e-21 25.041527857142853 20.049036428571448 9.9999996826552254e-21
decision_type=2 2 2 2 2
left_child=1 2 3 4 -1
right_child=-2 -3 -4 -5 -6
leaf_value=100 -100 -100 100 100 100
leaf_count=31 25 20 38 29 29
internal_value=0 4310.5737562114691 8083.3079353392595 9636.188787910376 7493.1891662597654
internal_count=172 147 127 89 60
shrinkage=0.05


Tree=56
num_leaves=6
num_cat=0
split_feature=1 7 8 8 11
split_gain=25337681202.035522 13095318471.154266 717276164.45685577 845643749.98257637 310933477.86400175
threshold=9.9999996826552254e-21 9.9999996826552254e-21 25.041527857142853 20.049036428571448 9.9999996826552254e-21
decision_type=2 2 2 2 2
left_child=1 2 3 4 -1
right_child=-2 -3 -4 -5 -6
leaf_value=100 -100 -100 100 100 100
leaf_count=31 25 20 38 29 29
internal_value=0 4237.7846339219277 7983.3079276497911 9536.1887769377627 7393.1891662597654
internal_count=172 147 127 89 60
shrinkage=0.05


Tree=57
num_leaves=6
num_cat=0
split_feature=1 7 8 8 11
split_gain=25084049625.745708 12905737047.92664 717276165.97334194 845643747.88980389 310933475.56552553
threshold=9.9999996826552254e-21 9.9999996826552254e-21 25.041527857142853 20.049036428571448 9.9999996826552254e-21
decision_type=2 2 2 2 2
left_child=1 2 3 4 -1
right_child=-2 -3 -4 -5 -6
leaf_value=100 -100 -100 100 100 100
leaf_count=31 25 20 38 29 29
internal_value=0 4164.9955215973105 7883.3079314945253 9436.1887824240694 7293.1891743977867
internal_count=172 147 127 89 60
shrinkage=0.05


Tree=58
num_leaves=7
num_cat=0
split_feature=1 7 8 8 8 8
split_gain=24831693880.855495 12717537941.175631 717276158.86980534 845643747.88980389 159864294.45825052 41987835.704213619
threshold=9.9999996826552254e-21 9.9999996826552254e-21 25.041527857142853 20.049036428571448 17.669412857142852 14.788081428571452
decision_type=2 2 2 2 2 2
left_child=1 2 3 4 5 -1
right_child=-2 -3 -4 -5 -6 -7
leaf_value=100 -100 -100 100 100 100 100
leaf_count=20 25 20 38 29 20 20
internal_value=0 4092.2064125943348 7783.3079391839938 9336.1887824240694 7193.1891743977867 8347.3999237060543
internal_count=172 147 127 89 60 40
shrinkage=0.05


Tree=59
num_leaves=7
num_cat=0
split_feature=1 5 6 2 8 9
split_gain=24580613948.033653 1188389038.3620796 1668898336.6295533 1971999393.2030594 511747438.36562502 212758620.32108599
threshold=9.9999996826552254e-21 9.9999996826552254e-21 9.9999996826552254e-21 9.9999996826552254e-21 23.412140000000001 9.9999996826552254e-21
decision_type=2 2 2 2 2 2
left_child=1 2 3 4 5 -1
right_child=-2 -3 -4 -5 -6 -7
leaf_value=100 -100 100 100 100 -100 -92.952245032269033
leaf_count=22 25 23 27 25 27 23
internal_value=0 4019.4172936264349 2794.8751771988409 859.34425841655923 -1797.5316908094619 267.54990234374998
internal_count=172 147 124 97 72 45
shrinkage=0.05


Tree=60
num_leaves=6
num_cat=0
split_feature=1 7 8 8 11
split_gain=21532168083.99966 13578267742.69264 695590911.23798752 422897595.3896246 294352725.53833342
threshold=9.9999996826552254e-21 9.9999996826552254e-21 25.041527857142853 20.049036428571448 9.9999996826552254e-21
decision_type=2 2 2 2 2
left_child=1 2 3 4 -1
right_child=-2 -3 -4 -5 -6
leaf_value=100 -100 -100 100 100 100
leaf_count=31 24 26 39 27 25
internal_value=0 3107.4391498050172 7529.2288625748433 9166.0087934746807 7598.6571982247488
internal_count=172 148 122 83 56
shrinkage=0.05


Tree=61
num_leaves=6
num_cat=0
split_feature=1 7 8 8 8
split_gain=21312855203.226234 13363341698.793888 695590910.03917313 422897596.53758812 179520401.54336929
threshold=9.9999996826552254e-21 9.9999996826552254e-21 25.041527857142853 20.049036428571448 15.7064392857143
decision_type=2 2 2 2 2
left_child=1 2 3 4 -1
right_child=-2 -3 -4 -5 -6
leaf_value=100 -100 -100 100 100 100
leaf_count=28 24 26 39 27 28
internal_value=0 3042.5742824657545 7429.2288595731143 9066.0087890625 7498.6571916852681
internal_count=172 148 122 83 56
shrinkage=0.05


Tree=62
num_leaves=6
num_cat=0
split_feature=1 7 8 8 8
split_gain=21094664833.171158 13150130252.861145 695590909.932868 422897596.53758812 179520401.54336929
threshold=9.9999996826552254e-21 9.9999996826552254e-21 25.041527857142853 20.049036428571448 15.7064392857143
decision_type=2 2 2 2 2
left_child=1 2 3 4 -1
right_child=-2 -3 -4 -5 -6
leaf_value=100 -100 -100 100 100 100
leaf_count=28 24 26 39 27 28
internal_value=0 2977.7094177039894 7329.2288596981862 8966.0087890625 7398.6571916852681
internal_count=172 148 122 83 56
shrinkage=0.05


Tree=63
num_leaves=6
num_cat=0
split_feature=1 7 8 8 11
split_gain=20877597181.33403 12938633397.173904 695590908.33445168 422897593.36297417 294352724.03037071
threshold=9.9999996826552254e-21 9.9999996826552254e-21 25.041527857142853 20.049036428571448 9.9999996826552254e-21
decision_type=2 2 2 2 2
left_child=1 2 3 4 -1
right_child=-2 -3 -4 -5 -6
leaf_value=100 -100 -100 100 100 100
leaf_count=31 24 26 39 27 25
internal_value=0 2912.8445495399269 7229.2288556958811 8866.0087831795936 7298.6571916852681
internal_count=172 148 122 83 56
shrinkage=0.05


Tree=64
num_leaves=7
num_cat=0
split_feature=1 5 3 6 2 8
split_gain=20661652148.526047 2121149969.0219653 2783417101.4945707 3089003280.6219068 4643908262.4520626 203108745.56515884
threshold=9.9999996826552254e-21 9.9999996826552254e-21 9.9999996826552254e-21 9.9999996826552254e-21 9.9999996826552254e-21 20.8783492857143
decision_type=2 2 2 2 2 2
left_child=1 2 3 4 5 -1
right_child=-2 -3 -4 -5 -6 -7
leaf_value=-100 -100 100 100 100 100 -100
leaf_count=26 24 25 24 23 22 28
internal_value=0 2847.9796846492873 1141.2203829075263 -1200.9830515312426 -4273.8850461558295 -9263.2983454951536
internal_count=172 148 123 99 76 54
shrinkage=0.05


Tree=65
num_leaves=7
num_cat=0
split_feature=1 7 4 5 6 2
split_gain=23176272297.426891 12167367438.156721 1334683893.4528275 926918961.01074457 560719603.35744238 1208223373.7102265
threshold=9.9999996826552254e-21 9.9999996826552254e-21 9.9999996826552254e-21 9.9999996826552254e-21 9.9999996826552254e-21 9.9999996826552254e-21
decision_type=2 2 2 2 2 2
left_child=1 2 3 4 5 -1
right_child=-2 -3 -4 -5 -6 -7
leaf_value=-93.246052009828645 -100 -100 100 100 100 100
leaf_count=31 28 25 21 23 21 23
internal_value=0 2954.740015241835 7167.9547006302519 5617.6668676259569 3914.5630143229168 2209.4427897135415
internal_count=172 144 119 98 75 54
shrinkage=0.05


Tree=66
num_leaves=7
num_cat=0
split_feature=1 7 4 8 8 11
split_gain=22994311004.530209 12017760746.643295 1316174124.847578 2023975157.993144 379211544.68751144 82137721.502832413
threshold=9.9999996826552254e-21 9.9999996826552254e-21 9.9999996826552254e-21 25.041527857142853 20.049036428571448 9.9999996826552254e-21
decision_type=2 2 2 2 2 2
left_child=1 2 3 4 5 -1
right_child=-2 -3 -4 -5 -6 -7
leaf_value=100 -100 -100 100 -100 100 100
leaf_count=21 28 25 21 25 26 26
internal_value=0 2931.0638131035698 7118.2961035976887 5578.7957140864155 8238.2842666416946 6543.0993080950802
internal_count=172 144 119 98 73 47
shrinkage=0.05


Tree=67
num_leaves=7
num_cat=0
split_feature=1 7 4 5 3 6
split_gain=22803006381.244286 11860836452.109886 1300824138.9596672 907006793.97258997 1498316975.4596546 1788979164.7868581
threshold=9.9999996826552254e-21 9.9999996826552254e-21 9.9999996826552254e-21 9.9999996826552254e-21 9.9999996826552254e-21 9.9999996826552254e-21
decision_type=2 2 2 2 2 2
left_child=1 2 3 4 5 -1
right_child=-2 -3 -4 -5 -6 -7
leaf_value=-100 -100 -100 100 100 100 100
leaf_count=32 28 25 21 23 22 21
internal_value=0 2900.5082575480142 7060.3129103203783 5529.816122249681 3845.1047070312502 965.42209610849056
internal_count=172 144 119 98 75 53
shrinkage=0.05


Tree=68
num_leaves=7
num_cat=0
split_feature=4 5 3 2 8 9
split_gain=6340285838.536377 6406051573.9050827 8498349807.471838 10108541814.258873 1081735056.2611847 490944584.53835297
threshold=9.9999996826552254e-21 9.9999996826552254e-21 9.9999996826552254e-21 9.9999996826552254e-21 24.317871428571447 9.9999996826552254e-21
decision_type=2 2 2 2 2 2
left_child=1 2 3 4 5 -1
right_child=-2 -3 -4 -5 -6 -7
leaf_value=-100 100 100 100 100 -100 -100
leaf_count=24 21 23 22 23 26 33
internal_value=0 -4442.0990265094679 -7203.0943746566772 -10915.203414053287 -16055.831623858716 -13617.624184056333
internal_count=172 151 128 106 83 57
shrinkage=0.05


Tree=69
num_leaves=7
num_cat=0
split_feature=1 4 5 3 2 6
split_gain=22446967828.845398 3054632527.0042839 2756174841.1612425 3993949550.7627125 4862299817.3106956 10904604275.940376
threshold=9.9999996826552254e-21 9.9999996826552254e-21 9.9999996826552254e-21 9.9999996826552254e-21 9.9999996826552254e-21 9.9999996826552254e-21
decision_type=2 2 2 2 2 2
left_child=1 2 3 4 5 -1
right_child=-2 -3 -4 -5 -6 -7
leaf_value=-100 -100 100 100 100 100 100
leaf_count=34 28 21 23 22 23 21
internal_value=0 2856.0638063218857 952.99131514386431 -1317.2119519042969 -4673.5471426156855 -9779.2570911754265
internal_count=172 144 123 100 78 55
shrinkage=0.05


Tree=70
num_leaves=7
num_cat=0
split_feature=1 7 8 8 8 8
split_gain=21912557390.006428 9769102292.7978497 905707407.49464703 497176249.47712231 429573721.01824605 177458313.04703236
threshold=9.9999996826552254e-21 9.9999996826552254e-21 25.041527857142853 20.049036428571448 33.513410714285698 15.7064392857143
decision_type=2 2 2 2 2 2
left_child=1 2 3 5 -4 -1
right_child=-2 -3 4 -5 -6 -7
leaf_value=100 -100 -100 -24.581752967834475 100 100 100
leaf_count=25 26 24 20 28 22 27
internal_value=0 2994.9023612035462 6622.9802845188833 8597.1918701171871 2862.5772643316359 6767.8809063251201
internal_count=172 146 122 80 42 52
shrinkage=0.05


Tree=71
num_leaves=6
num_cat=0
split_feature=1 7 5 6 9
split_gain=21704349337.485603 9610778424.7871246 278530011.69630909 314805113.23300982 155958946.29260755
threshold=9.9999996826552254e-21 9.9999996826552254e-21 9.9999996826552254e-21 9.9999996826552254e-21 9.9999996826552254e-21
decision_type=2 2 2 2 2
left_child=1 2 3 4 -1
right_child=-2 -3 -4 -5 -6
leaf_value=100 -100 -100 100 100 100
leaf_count=44 26 24 25 21 32
internal_value=0 2944.8449493826251 6543.4033898525549 5776.3241652655852 4829.350562647769
internal_count=172 146 122 97 76
shrinkage=0.05


Tree=72
num_leaves=7
num_cat=0
split_feature=7 3 5 6 2 9
split_gain=5016017755.8709488 2914022212.8226428 3854164296.2962995 4939141610.2426643 7648960735.6740303 411086881.63749313
threshold=9.9999996826552254e-21 9.9999996826552254e-21 9.9999996826552254e-21 9.9999996826552254e-21 9.9999996826552254e-21 9.9999996826552254e-21
decision_type=2 2 2 2 2 2
left_child=1 2 3 4 5 -1
right_child=-2 -3 -4 -5 -6 -7
leaf_value=-100 -100 100 100 100 100 -100
leaf_count=28 24 25 25 21 24 25
internal_value=0 337.18977438436974 -1663.2847260265817 -4490.5692942093829 -8198.0336636629963 -14904.960043853183
internal_count=172 148 123 98 77 53
shrinkage=0.05


Tree=73
num_leaves=7
num_cat=0
split_feature=7 3 5 6 2 9
split_gain=4933721297.9394951 2871766462.0990729 3794458900.8676605 4860856042.6074266 7507434675.6347771 411086881.63749504
threshold=9.9999996826552254e-21 9.9999996826552254e-21 9.9999996826552254e-21 9.9999996826552254e-21 9.9999996826552254e-21 9.9999996826552254e-21
decision_type=2 2 2 2 2 2
left_child=1 2 3 4 5 -1
right_child=-2 -3 -4 -5 -6 -7
leaf_value=-100 -100 100 100 100 100 -100
leaf_count=28 24 25 25 21 24 25
internal_value=0 308.8113927067937 -1677.1058682077298 -4482.4060338857225 -8160.3713260006598 -14804.960043853183
internal_count=172 148 123 98 77 53
shrinkage=0.05


Tree=74
num_leaves=5
num_cat=0
split_feature=1 7 9 10
split_gain=21116772843.26564 9166924846.2743759 262778711.29087448 84576622.304350853
threshold=9.9999996826552254e-21 9.9999996826552254e-21 9.9999996826552254e-21 9.9999996826552254e-21
decision_type=2 2 2 2
left_child=1 2 3 -1
right_child=-2 -3 -4 -5
leaf_value=100 -100 -100 100 100
leaf_count=47 26 24 55 20
internal_value=0 2817.4476857642603 6331.9279840187946 5002.2113018889922
internal_count=172 146 122 67
shrinkage=0.05


Tree=75
num_leaves=6
num_cat=0
split_feature=1 7 8 8 11
split_gain=19559678034.471039 8680916117.517683 1625197431.4319019 482836161.44610977 338841375.66254282
threshold=9.9999996826552254e-21 9.9999996826552254e-21 25.041527857142853 20.049036428571448 9.9999996826552254e-21
decision_type=2 2 2 2 2
left_child=1 2 3 4 -1
right_child=-2 -3 -4 -5 -6
leaf_value=100 -100 -100 10.897030309728676 100 100
leaf_count=29 25 23 37 29 29
internal_value=0 2459.7081726489423 5769.3209755189955 8130.2528567259342 6464.443603515625
internal_count=172 147 124 87 58
shrinkage=0.05


Tree=76
num_leaves=6
num_cat=0
split_feature=1 7 8 8 11
split_gain=19371005084.548359 8539165117.234293 1588799787.9256644 482836161.44610977 338841375.66254282
threshold=9.9999996826552254e-21 9.9999996826552254e-21 25.041527857142853 20.049036428571448 9.9999996826552254e-21
decision_type=2 2 2 2 2
left_child=1 2 3 4 -1
right_child=-2 -3 -4 -5 -6
leaf_value=100 -100 -100 10.352185553473397 100 100
leaf_count=29 25 23 37 29 29
internal_value=0 2413.4280025975236 5695.9081922961823 8030.2528567259342 6364.443603515625
internal_count=172 147 124 87 58
shrinkage=0.05


Tree=77
num_leaves=6
num_cat=0
split_feature=1 7 8 8 11
split_gain=19183422063.438881 8398712208.7190437 1552595656.6257634 482836167.9531765 338841375.66254282
threshold=9.9999996826552254e-21 9.9999996826552254e-21 25.041527857142853 20.049036428571448 9.9999996826552254e-21
decision_type=2 2 2 2 2
left_child=1 2 3 4 -1
right_child=-2 -3 -4 -5 -6
leaf_value=100 -100 -100 9.8345736116976354 100 100
leaf_count=29 25 23 37 29 29
internal_value=0 2367.2849287175809 5622.6579353578627 7930.2528679507905 6264.443603515625
internal_count=172 147 124 87 58
shrinkage=0.05


Tree=78
num_leaves=7
num_cat=0
split_feature=1 8 5 8 8 8
split_gain=18996917748.905972 1722448230.8267076 361577242.85033655 182568096.6678741 360197177.86872929 174570387.42319536
threshold=9.9999996826552254e-21 24.885366428571402 9.9999996826552254e-21 19.701496428571453 16.656692142857153 28.0849992857143
decision_type=2 2 2 2 2 2
left_child=1 2 3 4 -1 -3
right_child=-2 5 -4 -5 -6 -7
leaf_value=100 -100 -30.866280018199575 100 100 -5.9959648437500004 -100
leaf_count=28 25 22 20 27 25 25
internal_value=0 2321.2721594985651 4668.0033764648433 3717.2441497802733 2639.0141831883843 -2671.7729829828791
internal_count=172 147 100 80 53 47
shrinkage=0.05


Tree=79
num_leaves=6
num_cat=0
split_feature=1 7 8 8 11
split_gain=18833695739.445976 8244319526.1113472 1461835792.8478785 476314448.18783092 335264116.7295661
threshold=9.9999996826552254e-21 9.9999996826552254e-21 25.041527857142853 20.049036428571448 9.9999996826552254e-21
decision_type=2 2 2 2 2
left_child=1 2 3 4 -1
right_child=-2 -3 -4 -5 -6
leaf_value=100 -100 -100 12.661218509158573 100 100
leaf_count=29 25 23 37 29 29
internal_value=0 2292.8977104757919 5518.2103296095329 7757.3422893655716 6102.8214048188311
internal_count=172 147 124 87 58
shrinkage=0.05


Tree=80
num_leaves=7
num_cat=0
split_feature=1 3 5 8 8 8
split_gain=19877916667.947037 2120599704.9104757 2173189299.8070273 401421607.12037104 86040873.012209058 83021288.601207703
threshold=9.9999996826552254e-21 9.9999996826552254e-21 9.9999996826552254e-21 21.114915000000003 27.285589285714252 16.53907428571425
decision_type=2 2 2 2 2 2
left_child=1 2 3 5 -5 -1
right_child=-2 -3 -4 4 -6 -7
leaf_value=75.697031568444288 -100 100 100 -100 -100 -53.574811695240157
leaf_count=23 27 25 24 22 24 27
internal_value=0 2029.7452409415409 284.22564595540365 -1843.5613988240559 -3975.4810976774797 117.80472412109376
internal_count=172 145 120 96 46 50
shrinkage=0.05


Tree=81
num_leaves=6
num_cat=0
split_feature=1 7 8 8 11
split_gain=19738118147.479992 10121474840.021675 451323513.74717093 448972318.97953701 274062084.09270072
threshold=9.9999996826552254e-21 9.9999996826552254e-21 25.041527857142853 20.049036428571448 9.9999996826552254e-21
decision_type=2 2 2 2 2
left_child=1 2 3 4 -1
right_child=-2 -3 -4 -5 -6
leaf_value=100 -100 -100 100 100 100
leaf_count=30 27 26 39 23 27
internal_value=0 2025.6451542295258 5930.9153960412286 7290.6614578247072 5785.8181559244795
internal_count=172 145 119 80 57
shrinkage=0.05


Tree=82
num_leaves=7
num_cat=0
split_feature=1 7 3 8 8 8
split_gain=19518695496.688122 9936437486.1953793 606424145.73242521 542248616.64846849 363612620.91267395 238821834.58599699
threshold=9.9999996826552254e-21 9.9999996826552254e-21 9.9999996826552254e-21 25.041527857142853 18.995782857142849 15.7064392857143
decision_type=2 2 2 2 2 2
left_child=1 2 3 4 5 -1
right_child=-2 -3 -4 -5 -6 -7
leaf_value=100 -100 -100 100 70.064096346768466 100 100
leaf_count=21 27 26 25 33 20 20
internal_value=0 1961.5072164601293 5830.9153878348216 4666.7334971326463 6433.2892646164191 4728.0802240139101
internal_count=172 145 119 94 61 41
shrinkage=0.05


Tree=83
num_leaves=6
num_cat=0
split_feature=1 7 8 8 11
split_gain=19309531659.188019 9760682774.6184578 445829535.95202255 448972318.2447505 274062085.10843062
threshold=9.9999996826552254e-21 9.9999996826552254e-21 25.041527857142853 20.049036428571448 9.9999996826552254e-21
decision_type=2 2 2 2 2
left_child=1 2 3 4 -1
right_child=-2 -3 -4 -5 -6
leaf_value=100 -100 -100 100 100 100
leaf_count=30 27 26 39 23 27
internal_value=0 1904.1822173019934 5739.2168594488576 7090.6614608764648 5585.8181602076484
internal_count=172 145 119 80 57
shrinkage=0.05


Tree=84
num_leaves=7
num_cat=0
split_feature=1 7 3 5 2 9
split_gain=19092511018.342598 9578988642.8936481 604126194.14607334 496656865.31349564 431787848.31624842 48424483.469302714
threshold=9.9999996826552254e-21 9.9999996826552254e-21 9.9999996826552254e-21 9.9999996826552254e-21 9.9999996826552254e-21 9.9999996826552254e-21
decision_type=2 2 2 2 2 2
left_child=1 2 3 4 5 -1
right_child=-2 -3 -4 -5 -6 -7
leaf_value=17.61480908203125 -100 -100 100 100 100 100
leaf_count=25 27 26 25 24 25 20
internal_value=0 1840.0442862675109 5639.2168594488576 4477.2428069419047 3131.3176967075892 1280.1322157118057
internal_count=172 145 119 94 70 45
shrinkage=0.05


Tree=85
num_leaves=7
num_cat=0
split_feature=1 3 5 6 8 8
split_gain=18969591208.969727 1544728868.8759425 1735625535.6752112 2300702224.0430655 1173520521.7839017 72193016.164275914
threshold=9.9999996826552254e-21 9.9999996826552254e-21 9.9999996826552254e-21 9.9999996826552254e-21 25.041527857142853 17.239472142857149
decision_type=2 2 2 2 2 2
left_child=1 2 3 4 5 -1
right_child=-2 -3 -4 -5 -6 -7
leaf_value=-100 -100 100 100 100 -100 18.785122387225812
leaf_count=22 26 24 25 26 23 26
internal_value=0 2738.0468062309369 1295.3488747018282 -619.49000690892797 -3566.6372796716823 -752.40805117289221
internal_count=172 146 122 97 71 48
shrinkage=0.05


Tree=86
num_leaves=7
num_cat=0
split_feature=7 3 5 6 2 8
split_gain=4207395575.2769523 2780080573.6088877 3348425967.9949017 4683896318.2346945 7191138947.4128046 455393984.3259449
threshold=9.9999996826552254e-21 9.9999996826552254e-21 9.9999996826552254e-21 9.9999996826552254e-21 9.9999996826552254e-21 20.375977142857149
decision_type=2 2 2 2 2 2
left_child=1 2 3 4 5 -1
right_child=-2 -3 -4 -5 -6 -7
leaf_value=-100 -100 100 100 100 100 -100
leaf_count=25 20 24 25 26 24 28
internal_value=0 95.18869821648849 -1756.6686687469482 -4276.4726503242564 -8195.0311580509333 -14698.142108269458
internal_count=172 152 128 103 77 53
shrinkage=0.05


Tree=87
num_leaves=7
num_cat=0
split_feature=1 7 3 5 6 2
split_gain=18635253739.313255 7435514641.5395594 561000344.56378794 536970270.09436297 639957403.20045269 1103420705.9542165
threshold=9.9999996826552254e-21 9.9999996826552254e-21 9.9999996826552254e-21 9.9999996826552254e-21 9.9999996826552254e-21 9.9999996826552254e-21
decision_type=2 2 2 2 2 2
left_child=1 2 3 4 5 -1
right_child=-2 -3 -4 -5 -6 -7
leaf_value=-100 -100 -100 100 100 100 100
leaf_count=27 26 20 24 25 26 24
internal_value=0 2678.5371244247644 5521.7463127015126 4498.2133669385721 3190.8398707005886 1132.4304677925859
internal_count=172 146 126 102 77 51
shrinkage=0.05


Tree=88
num_leaves=6
num_cat=0
split_feature=1 7 8 8 11
split_gain=18461715882.652218 7323349783.5313272 583402010.55339766 651748759.9266901 387514750.6014173
threshold=9.9999996826552254e-21 9.9999996826552254e-21 25.041527857142853 20.049036428571448 9.9999996826552254e-21
decision_type=2 2 2 2 2
left_child=1 2 3 4 -1
right_child=-2 -3 -4 -5 -6
leaf_value=100 -100 -100 100 100 100
leaf_count=32 26 20 37 29 28
internal_value=0 2642.9206894129925 5464.6034594339035 6852.0125855863762 4970.6674397786455
internal_count=172 146 126 89 60
shrinkage=0.05


Tree=89
num_leaves=6
num_cat=0
split_feature=1 7 8 8 11
split_gain=18242023610.090046 7181827380.2376575 583402009.24084616 651748761.70652723 387514748.19698501
threshold=9.9999996826552254e-21 9.9999996826552254e-21 25.041527857142853 20.049036428571448 9.9999996826552254e-21
decision_type=2 2 2 2 2
left_child=1 2 3 4 -1
right_child=-2 -3 -4 -5 -6
leaf_value=100 -100 -100 100 100 100
leaf_count=32 26 20 37 29 28
internal_value=0 2570.317946447085 5364.6034556797576 6752.0125802715174 4870.6674318949381
internal_count=172 146 126 89 60
shrinkage=0.05


Tree=90
num_leaves=7
num_cat=0
split_feature=1 7 5 3 6 2
split_gain=16243492573.784031 10310356305.782904 196310623.79257298 235764162.63647985 238370649.76077151 330153919.39619398
threshold=9.9999996826552254e-21 9.9999996826552254e-21 9.9999996826552254e-21 9.9999996826552254e-21 9.9999996826552254e-21 9.9999996826552254e-21
decision_type=2 2 2 2 2 2
left_child=1 2 3 4 5 -1
right_child=-2 -3 -4 -5 -6 -7
leaf_value=43.135111328124999 -100 -100 100 100 100 100
leaf_count=25 24 29 22 21 26 25
internal_value=0 2020.3043889741639 6140.6296182199685 5528.9501626712763 4709.4371017656831 3432.3478028869631
internal_count=172 148 119 97 76 50
shrinkage=0.05


Tree=91
num_leaves=6
num_cat=0
split_feature=1 7 8 8 8
split_gain=16068815293.693813 10126768573.366285 488746632.76043987 292738047.11554337 39267307.298027515
threshold=9.9999996826552254e-21 9.9999996826552254e-21 25.041527857142853 20.049036428571448 15.018002857142902
decision_type=2 2 2 2 2
left_child=1 2 3 4 -1
right_child=-2 -3 -4 -5 -6
leaf_value=100 -100 -100 100 100 100
leaf_count=21 24 29 38 27 33
internal_value=0 1969.0991755949485 6052.5760755298516 7440.666305094589 6096.4100117506805
internal_count=172 148 119 81 54
shrinkage=0.05


Tree=92
num_leaves=7
num_cat=0
split_feature=1 5 3 6 2 8
split_gain=15884077495.910566 1170179657.5613923 1440832502.6811709 2072547077.5684152 3048518272.8167453 733308896.00121832
threshold=9.9999996826552254e-21 9.9999996826552254e-21 9.9999996826552254e-21 9.9999996826552254e-21 9.9999996826552254e-21 24.885366428571402
decision_type=2 2 2 2 2 2
left_child=1 2 3 4 5 -1
right_child=-2 -3 -4 -5 -6 -7
leaf_value=-100 -100 100 100 100 100 -100
leaf_count=33 24 22 21 26 25 21
internal_value=0 1908.2883680704479 733.33269591558542 -778.96215580531532 -3327.7323568802844 -7554.4572347005205
internal_count=172 148 126 105 79 54
shrinkage=0.05


Tree=93
num_leaves=6
num_cat=0
split_feature=1 7 8 8 8
split_gain=15738905231.899883 9781844530.4148331 481787298.43689442 292200590.55374241 40323856.015287638
threshold=9.9999996826552254e-21 9.9999996826552254e-21 25.041527857142853 20.049036428571448 15.018002857142902
decision_type=2 2 2 2 2
left_child=1 2 3 4 -1
right_child=-2 -3 -4 -5 -6
leaf_value=100 -100 -100 100 100 100
leaf_count=21 24 29 38 27 33
internal_value=0 1881.261343466269 5894.5928873014045 7272.7650749300738 5929.7433516890915
internal_count=172 148 119 81 54
shrinkage=0.05


Tree=94
num_leaves=6
num_cat=0
split_feature=1 7 8 8 11
split_gain=15556079209.011414 9591742651.5703411 481787298.41586542 292200590.57423544 84071911.850279331
threshold=9.9999996826552254e-21 9.9999996826552254e-21 25.041527857142853 20.049036428571448 9.9999996826552254e-21
decision_type=2 2 2 2 2
left_child=1 2 3 4 -1
right_child=-2 -3 -4 -5 -6
leaf_value=100 -100 -100 100 100 100
leaf_count=28 24 29 38 27 26
internal_value=0 1820.4505326039082 5794.5928872372924 7172.7650748358828 5829.743351547806
internal_count=172 148 119 81 54
shrinkage=0.05


Tree=95
num_leaves=7
num_cat=0
split_feature=1 7 8 8 11 8
split_gain=14667902193.727133 6154071600.9828329 686051643.08806586 442430000.40422106 412614470.83840728 236357435.17797101
threshold=9.9999996826552254e-21 9.9999996826552254e-21 25.041527857142853 20.049036428571448 9.9999996826552254e-21 33.513410714285698
decision_type=2 2 2 2 2 2
left_child=1 2 3 4 -1 -4
right_child=-2 -3 5 -5 -6 -7
leaf_value=100 -100 -100 -87.380588378906253 100 72.35211534171269 100
leaf_count=30 23 21 20 27 29 22
internal_value=0 1450.1318971134672 4053.2435766905546 5671.1330121727879 4136.7671243376653 740.42235165550596
internal_count=172 149 128 86 59 42
shrinkage=0.05


Tree=96
num_leaves=7
num_cat=0
split_feature=7 3 6 5 2 8
split_gain=3511475099.6862311 2293609776.9785404 2493171048.9047332 4042705075.8269291 5945854351.6392031 363274309.81629372
threshold=9.9999996826552254e-21 9.9999996826552254e-21 9.9999996826552254e-21 9.9999996826552254e-21 9.9999996826552254e-21 20.375977142857149
decision_type=2 2 2 2 2 2
left_child=1 2 3 4 5 -1
right_child=-2 -3 -4 -5 -6 -7
leaf_value=-100 -100 100 100 100 100 -100
leaf_count=24 21 25 27 23 23 29
internal_value=0 -515.44267449789493 -2251.4678691682361 -4574.499106975517 -8089.9056316174956 -13916.654766730542
internal_count=172 151 126 99 76 53
shrinkage=0.05


Tree=97
num_leaves=7
num_cat=0
split_feature=1 3 5 6 2 8
split_gain=14374408661.10947 1371477464.332675 1354770436.7303374 2201180484.8536291 3087889908.4842081 703924556.77439642
threshold=9.9999996826552254e-21 9.9999996826552254e-21 9.9999996826552254e-21 9.9999996826552254e-21 9.9999996826552254e-21 24.885366428571402
decision_type=2 2 2 2 2 2
left_child=1 2 3 4 5 -1
right_child=-2 -3 -4 -5 -6 -7
leaf_value=-100 -100 100 100 100 100 -100
leaf_count=29 23 25 23 27 23 22
internal_value=0 1377.3090928864958 15.047961081227948 -1562.2917747875251 -4382.1882340714737 -8720.2314500995708
internal_count=172 149 124 101 74 51
shrinkage=0.05


Tree=98
num_leaves=7
num_cat=0
split_feature=1 7 8 8 11 8
split_gain=14233958301.707977 5844390638.2290163 640320540.29716468 430683239.90853024 412102934.84282982 213065527.85044724
threshold=9.9999996826552254e-21 9.9999996826552254e-21 25.041527857142853 20.049036428571448 9.9999996826552254e-21 33.513410714285698
decision_type=2 2 2 2 2 2
left_child=1 2 3 4 -1 -4
right_child=-2 -3 5 -5 -6 -7
leaf_value=100 -100 -100 -84.011550292968764 100 62.182782469124632 100
leaf_count=30 23 21 20 27 29 22
internal_value=0 1345.765468776626 3882.5357812047005 5445.5723952359931 3931.7126657518288 682.03223818824404
internal_count=172 149 128 86 59 42
shrinkage=0.05


Tree=99
num_leaves=7
num_cat=0
split_feature=1 7 3 5 6 2
split_gain=14085499031.375334 5739221371.8851814 529715948.56483102 463871807.97474098 760383646.15819716 1272661348.4172268
threshold=9.9999996826552254e-21 9.9999996826552254e-21 9.9999996826552254e-21 9.9999996826552254e-21 9.9999996826552254e-21 9.9999996826552254e-21
decision_type=2 2 2 2 2 2
left_child=1 2 3 4 5 -1
right_child=-2 -3 -4 -5 -6 -7
leaf_value=-100 -100 -100 100 100 100 100
leaf_count=30 23 21 25 23 27 23
internal_value=0 1306.0133105540435 3819.8555345237255 2817.6243042806977 1679.7368698120117 -520.73255085495282
internal_count=172 149 128 103 80 53
shrinkage=0.05


Tree=100
num_leaves=6
num_cat=0
split_feature=1 7 8 8 11
split_gain=15944536514.481985 6664803005.9260588 798263021.51053524 440559244.22176456 239303352.46581542
threshold=9.9999996826552254e-21 9.9999996826552254e-21 25.041527857142853 20.049036428571448 9.9999996826552254e-21
decision_type=2 2 2 2 2
left_child=1 2 3 4 -1
right_child=-2 -3 -4 -5 -6
leaf_value=100 -100 -100 -16.821501760771781 100 100
leaf_count=30 28 27 33 24 30
internal_value=0 562.80120425754126 3830.946557199853 5468.1302185058594 4019.716892496745
internal_count=172 144 117 84 60
shrinkage=0.05


Tree=101
num_leaves=6
num_cat=0
split_feature=1 7 8 8 11
split_gain=15779008548.195484 6537664041.0435514 766455049.16344666 440559244.31016874 239303352.34392238
threshold=9.9999996826552254e-21 9.9999996826552254e-21 25.041527857142853 20.049036428571448 9.9999996826552254e-21
decision_type=2 2 2 2 2
left_child=1 2 3 4 -1
right_child=-2 -3 -4 -5 -6
leaf_value=100 -100 -100 -15.980441376657197 100 96.131085001627611
leaf_count=30 28 27 33 24 30
internal_value=0 527.07273080613879 3763.8961283365884 5368.1302181425544 3919.7168919881183
internal_count=172 144 117 84 60
shrinkage=0.05


Tree=102
num_leaves=7
num_cat=0
split_feature=1 3 5 6 8 8
split_gain=15615086444.33194 1291215354.232986 1410977475.4787111 2237431856.6935215 605925380.19347334 91528611.225752056
threshold=9.9999996826552254e-21 9.9999996826552254e-21 9.9999996826552254e-21 9.9999996826552254e-21 25.041527857142853 18.620995714285698
decision_type=2 2 2 2 2 2
left_child=1 2 3 4 5 -1
right_child=-2 -3 -4 -5 -6 -7
leaf_value=-100 -100 100 100 100 -100 -77.92040267944337
leaf_count=30 28 25 22 23 24 20
internal_value=0 491.9576020770603 -880.54955708479679 -2520.4294202352307 -5197.9764002207166 -3215.4712197875979
internal_count=172 144 119 97 74 50
shrinkage=0.05


Tree=103
num_leaves=6
num_cat=0
split_feature=1 7 8 8 8
split_gain=15493969104.310165 6327558255.5666237 724654852.50994515 436696928.34984875 167053086.16576874
threshold=9.9999996826552254e-21 9.9999996826552254e-21 25.041527857142853 20.049036428571448 17.669412857142852
decision_type=2 2 2 2 2
left_child=1 2 3 4 -1
right_child=-2 -3 -4 -5 -6
leaf_value=100 -100 -100 -14.726872484611745 100 75.998269072033111
leaf_count=39 28 27 33 24 21
internal_value=0 491.6687413321601 3676.0552940694697 5235.931014832996 3793.8806749979653
internal_count=172 144 117 84 60
shrinkage=0.05


Tree=104
num_leaves=7
num_cat=0
split_feature=3 6 5 7 8 8
split_gain=3259800739.4810038 3558685750.2034607 5092786309.3810482 250532128.88216209 298458683.15612507 124935631.21200943
threshold=9.9999996826552254e-21 9.9999996826552254e-21 9.9999996826552254e-21 9.9999996826552254e-21 25.041527857142853 17.372375714285702
decision_type=2 2 2 2 2 2
left_child=1 2 3 4 5 -1
right_child=-2 -3 -4 -5 -6 -7
leaf_value=-100 100 100 100 -100 -100 -100
leaf_count=22 25 23 22 27 25 28
internal_value=0 -5499.9461299351287 -7618.9864860042453 -10595.296316857432 -9654.9607155354824 -8244.3847500610354
internal_count=172 147 124 102 75 50
shrinkage=0.05


Tree=105
num_leaves=7
num_cat=0
split_feature=1 7 3 5 8 8
split_gain=16350361860.134649 5636382492.8912201 318792521.72470307 333089480.9015255 549917830.53992927 393873526.2088542
threshold=9.9999996826552254e-21 9.9999996826552254e-21 9.9999996826552254e-21 9.9999996826552254e-21 25.041527857142853 18.442907142857152
decision_type=2 2 2 2 2 2
left_child=1 2 3 4 5 -1
right_child=-2 -3 -4 -5 -6 -7
leaf_value=94.343568307161334 -100 -100 100 100 -63.428095354352685 100
leaf_count=28 29 23 21 23 28 20
internal_value=0 1264.5785978990834 4013.1403889775274 3262.4592753468137 2253.3923219065919 4307.8656221528845
internal_count=172 143 120 99 76 48
shrinkage=0.05


Tree=106
num_leaves=7
num_cat=0
split_feature=1 7 3 5 6 2
split_gain=16181621519.823477 5530974391.5332088 311724147.84861469 323603418.47051406 429416779.07764822 615425809.13126612
threshold=9.9999996826552254e-21 9.9999996826552254e-21 9.9999996826552254e-21 9.9999996826552254e-21 9.9999996826552254e-21 9.9999996826552254e-21
decision_type=2 2 2 2 2 2
left_child=1 2 3 4 5 -1
right_child=-2 -3 -4 -5 -6 -7
leaf_value=-100 -100 -100 100 100 100 100
leaf_count=29 29 23 21 23 25 22
internal_value=0 1229.8538690313592 3952.5934204101563 3210.281131628788 2215.6865820633739 551.44018584606692
internal_count=172 143 120 99 76 51
shrinkage=0.05


Tree=107
num_leaves=6
num_cat=0
split_feature=1 7 9 8 8
split_gain=16023018655.951237 5432310680.297081 217916654.04933262 238804454.29520166 221634292.88531399
threshold=9.9999996826552254e-21 9.9999996826552254e-21 9.9999996826552254e-21 18.024927857142899 23.92315
decision_type=2 2 2 2 2
left_child=1 2 3 -1 -4
right_child=-2 -3 4 -5 -6
leaf_value=100 -100 -100 100 55.536670547876604 100
leaf_count=30 29 23 31 39 20
internal_value=0 1202.5811494947313 3900.9267711003622 2742.375839786253 5468.3780311135688
internal_count=172 143 120 69 51
shrinkage=0.05


Tree=108
num_leaves=6
num_cat=0
split_feature=1 7 9 8 8
split_gain=15830045849.291134 5312812886.0293598 213917144.65543652 233179193.25394464 221634292.83421421
threshold=9.9999996826552254e-21 9.9999996826552254e-21 9.9999996826552254e-21 18.024927857142899 23.92315
decision_type=2 2 2 2 2
left_child=1 2 3 -1 -4
right_child=-2 -3 4 -5 -6
leaf_value=100 -100 -100 100 52.759844970703128 100
leaf_count=30 29 23 31 39 20
internal_value=0 1146.8753806694403 3815.3774047215779 2667.5073767399444 5368.3780308143769
internal_count=172 143 120 69 51
shrinkage=0.05


Tree=109
num_leaves=7
num_cat=0
split_feature=1 7 3 5 8 8
split_gain=15639172160.482275 5195215564.9284811 303307053.22037721 310294430.50263906 503540077.49155468 392487938.94638157
threshold=9.9999996826552254e-21 9.9999996826552254e-21 9.9999996826552254e-21 9.9999996826552254e-21 25.041527857142853 18.442907142857152
decision_type=2 2 2 2 2 2
left_child=1 2 3 4 5 -1
right_child=-2 -3 -4 -5 -6 -7
leaf_value=78.689090810503274 -100 -100 100 100 -67.279438345772888 100
leaf_count=28 29 23 21 23 28 20
internal_value=0 1091.9269092266377 3730.7304762522381 2998.5086304635711 2024.581386164615 3990.5139754613242
internal_count=172 143 120 99 76 48
shrinkage=0.05


Tree=110
num_leaves=7
num_cat=0
split_feature=1 7 3 5 6 2
split_gain=14734060522.351601 6854416460.5142317 441748212.91267467 410394135.71063375 549151661.71539533 678504152.29572153
threshold=9.9999996826552254e-21 9.9999996826552254e-21 9.9999996826552254e-21 9.9999996826552254e-21 9.9999996826552254e-21 9.9999996826552254e-21
decision_type=2 2 2 2 2 2
left_child=1 2 3 4 5 -1
right_child=-2 -3 -4 -5 -6 -7
leaf_value=-100 -100 -100 100 100 100 100
leaf_count=26 28 25 23 26 24 20
internal_value=0 692.71715812550656 3854.9986153209911 2911.9323249161243 1651.839291191101 -371.29092303566313
internal_count=172 144 119 96 70 46
shrinkage=0.05


Tree=111
num_leaves=7
num_cat=0
split_feature=1 3 5 6 8 8
split_gain=14582628577.955011 1351868512.2549925 1566052981.2895086 2046933008.5909736 993629404.73535538 131787242.2672866
threshold=9.9999996826552254e-21 9.9999996826552254e-21 9.9999996826552254e-21 9.9999996826552254e-21 25.041527857142853 18.024927857142899
decision_type=2 2 2 2 2 2
left_child=1 2 3 4 5 -1
right_child=-2 -3 -4 -5 -6 -7
leaf_value=-63.305611617476849 -100 100 100 100 -100 -100
leaf_count=27 28 23 26 24 22 22
internal_value=0 663.55049196879065 -672.29802634499288 -2554.3664634303041 -5253.1400971748462 -2746.4748286033164
internal_count=172 144 121 95 71 49
shrinkage=0.05


Tree=112
num_leaves=7
num_cat=0
split_feature=1 3 5 6 2 8
split_gain=14456299073.983675 1316807710.617991 1516726209.5282772 1976256299.2818971 2334357357.7324648 635252370.93364954
threshold=9.9999996826552254e-21 9.9999996826552254e-21 9.9999996826552254e-21 9.9999996826552254e-21 9.9999996826552254e-21 22.935683571428552
decision_type=2 2 2 2 2 2
left_child=1 2 3 4 5 -1
right_child=-2 -3 -4 -5 -6 -7
leaf_value=-100 -100 100 100 100 100 -100
leaf_count=28 28 23 26 24 20 23
internal_value=0 655.2813998990589 -663.13066080582041 -2515.3217136383055 -5167.0943051996364 -8757.8379959405629
internal_count=172 144 121 95 71 51
shrinkage=0.05


Tree=113
num_leaves=5
num_cat=0
split_feature=1 7 3 11
split_gain=14306305000.539593 6536346886.8359146 406747983.31322312 248463318.74650633
threshold=9.9999996826552254e-21 9.9999996826552254e-21 9.9999996826552254e-21 9.9999996826552254e-21
decision_type=2 2 2 2
left_child=1 2 3 -1
right_child=-2 -3 -4 -5
leaf_value=100 -100 -100 100 38.885040654362861
leaf_count=59 28 25 23 37
internal_value=0 626.11473735173547 3714.1540729298313 2809.2187826633453
internal_count=172 144 119 96
shrinkage=0.05


Tree=114
num_leaves=7
num_cat=0
split_feature=1 3 5 6 2 8
split_gain=14133589688.150093 1271167907.22733 1464097284.0471442 1897006906.304966 2233552911.0589876 644181797.11829758
threshold=9.9999996826552254e-21 9.9999996826552254e-21 9.9999996826552254e-21 9.9999996826552254e-21 9.9999996826552254e-21 24.885366428571402
decision_type=2 2 2 2 2 2
left_child=1 2 3 4 5 -1
right_child=-2 -3 -4 -5 -6 -7
leaf_value=-100 -100 100 100 100 100 -100
leaf_count=31 28 23 26 24 20 20
internal_value=0 576.54014889399207 -718.82272811763539 -2538.5954623573703 -5136.6550037222851 -8649.013671875
internal_count=172 144 121 95 71 51
shrinkage=0.05


Tree=115
num_leaves=6
num_cat=0
split_feature=1 7 8 11 8
split_gain=11882235686.583546 5922967915.8577671 251501007.51672268 362039392.22536135 30000374.874013424
threshold=9.9999996826552254e-21 9.9999996826552254e-21 25.041527857142853 9.9999996826552254e-21 17.669412857142852
decision_type=2 2 2 2 2
left_child=1 2 3 4 -1
right_child=-2 -3 -4 -5 -6
leaf_value=100 -100 -100 64.945718160489704 100 100
leaf_count=20 23 24 41 38 26
internal_value=0 566.56710154898212 3329.2253873901368 4320.2105301448273 6207.1203863724422
internal_count=172 149 125 84 46
shrinkage=0.05


Tree=116
num_leaves=7
num_cat=0
split_feature=1 5 3 2 11 8
split_gain=11728843271.690758 981200065.77903008 1144917865.353735 1359035190.8627424 511138044.8662684 480693640.27669245
threshold=9.9999996826552254e-21 9.9999996826552254e-21 9.9999996826552254e-21 9.9999996826552254e-21 9.9999996826552254e-21 22.184784285714301
decision_type=2 2 2 2 2 2
left_child=1 2 3 4 5 -1
right_child=-2 -3 -4 -5 -6 -7
leaf_value=1.5198190400094698 -100 100 100 100 -100 -100
leaf_count=33 23 26 20 25 25 20
internal_value=0 508.42757559142655 -671.40333023691562 -2015.8110446374394 -4072.2671399238784 -2314.1254514298348
internal_count=172 149 123 103 78 53
shrinkage=0.05


Tree=117
num_leaves=6
num_cat=0
split_feature=1 7 5 8 11
split_gain=11615240337.521881 5735618088.9568748 253834182.34041572 453972944.6033088 465617430.58638394
threshold=9.9999996826552254e-21 9.9999996826552254e-21 9.9999996826552254e-21 25.041527857142853 9.9999996826552254e-21
decision_type=2 2 2 2 2
left_child=1 2 3 4 -1
right_child=-2 -3 -4 -5 -6
leaf_value=100 -100 -100 100 -27.470899177320078 40.047562012849035
leaf_count=39 23 24 26 33 27
internal_value=0 490.64132628984902 3209.2556015625 2478.9760789967545 3993.1731102683329
internal_count=172 149 125 99 66
shrinkage=0.05


Tree=118
num_leaves=7
num_cat=0
split_feature=1 5 3 2 6 8
split_gain=11491753354.074453 927964891.07115841 1102408652.4355352 1293380669.6489003 2404956521.2316508 354411944.33676767
threshold=9.9999996826552254e-21 9.9999996826552254e-21 9.9999996826552254e-21 9.9999996826552254e-21 9.9999996826552254e-21 21.383379285714248
decision_type=2 2 2 2 2 2
left_child=1 2 3 4 5 -1
right_child=-2 -3 -4 -5 -6 -7
leaf_value=-100 -100 100 100 100 100 -100
leaf_count=26 23 26 20 25 24 28
internal_value=0 461.95180578039799 -685.42682380986412 -2004.6404738935453 -4010.808357434395 -7712.6262839988422
internal_count=172 149 123 103 78 54
shrinkage=0.05


Tree=119
num_leaves=7
num_cat=0
split_feature=1 7 11 8 8 8
split_gain=11370042651.911133 5529931160.9169331 224882075.75350881 460351670.36244464 116380216.5208237 19946555.428204536
threshold=9.9999996826552254e-21 9.9999996826552254e-21 9.9999996826552254e-21 27.285589285714252 18.024927857142899 17.669412857142852
decision_type=2 2 2 2 2 2
left_child=1 2 3 5 -4 -1
right_child=-2 -3 4 -5 -6 -7
leaf_value=100 -100 -100 100 7.3971264648437502 14.166821984321841 100
leaf_count=20 23 24 21 20 31 33
internal_value=0 434.43503465588464 3103.8576941223146 4235.8999964047789 1514.6444620719324 5778.5254556907794
internal_count=172 149 125 73 52 53
shrinkage=0.05


Tree=120
num_leaves=7
num_cat=0
split_feature=1 7 9 8 8 8
split_gain=11510425885.283363 4717125285.1272297 375058495.47360992 303665745.62192202 79670367.686079979 4689985.3015797418
threshold=9.9999996826552254e-21 9.9999996826552254e-21 9.9999996826552254e-21 18.024927857142899 23.412140000000001 24.885366428571402
decision_type=2 2 2 2 2 2
left_child=1 2 3 -1 -4 -5
right_child=-2 -3 4 5 -6 -7
leaf_value=100 -100 -100 100 6.5984721617265185 100 -26.855989990234377
leaf_count=29 24 26 31 22 20 20
internal_value=0 411.61167345820246 3017.8528769446202 1531.8299774384834 5086.6298546884573 -186.64448202224006
internal_count=172 148 122 71 51 42
shrinkage=0.05


Tree=121
num_leaves=7
num_cat=0
split_feature=7 3 6 5 2 8
split_gain=2382724325.7145634 1455546497.496016 1581688226.431493 2429430349.2337828 4265011967.8125291 108040062.13694763
threshold=9.9999996826552254e-21 9.9999996826552254e-21 9.9999996826552254e-21 9.9999996826552254e-21 9.9999996826552254e-21 20.8783492857143
decision_type=2 2 2 2 2 2
left_child=1 2 3 4 5 -1
right_child=-2 -3 -4 -5 -6 -7
leaf_value=-100 -100 100 100 100 100 -100
leaf_count=26 26 26 26 21 21 26
internal_value=0 -1327.136310734161 -2796.8497479756675 -4706.230609325652 -7432.9253268307202 -12290.356689453125
internal_count=172 146 120 94 73 52
shrinkage=0.05


Tree=122
num_leaves=7
num_cat=0
split_feature=1 7 9 8 8 8
split_gain=11257462270.208448 4518027896.6485224 357768815.0997175 286843143.52996969 78171609.096800566 3438528.5335556078
threshold=9.9999996826552254e-21 9.9999996826552254e-21 9.9999996826552254e-21 18.024927857142899 23.412140000000001 24.885366428571402
decision_type=2 2 2 2 2 2
left_child=1 2 3 -1 -4 -5
right_child=-2 -3 4 5 -6 -7
leaf_value=100 -100 -100 100 2.6321868202903058 100 -26.013195800781251
leaf_count=29 24 26 31 22 20 20
internal_value=0 350.74648181812182 2901.3934641353421 1450.0264793718366 4921.9239723355158 -220.16943141392298
internal_count=172 148 122 71 51 42
shrinkage=0.05


Tree=123
num_leaves=7
num_cat=0
split_feature=1 7 9 8 8 8
split_gain=11129225098.276951 4417901358.2129765 344363215.20271266 271480438.00373709 78171609.096800566 3103271.4929648545
threshold=9.9999996826552254e-21 9.9999996826552254e-21 9.9999996826552254e-21 18.024927857142899 23.412140000000001 24.885366428571402
decision_type=2 2 2 2 2 2
left_child=1 2 3 -1 -4 -5
right_child=-2 -3 4 5 -6 -7
leaf_value=100 -100 -100 100 2.5005795218727807 100 -24.712531738281253
leaf_count=29 24 26 31 22 20 20
internal_value=0 317.38403866742107 2839.6095167066228 1415.6934992830518 4821.9239723355158 -209.16089775448754
internal_count=172 148 122 71 51 42
shrinkage=0.05


Tree=124
num_leaves=7
num_cat=0
split_feature=1 7 9 8 8 8
split_gain=11001573575.301979 4318781443.2841854 331278169.90507722 256613578.33886257 78171609.221984148 2800704.8615381699
threshold=9.9999996826552254e-21 9.9999996826552254e-21 9.9999996826552254e-21 18.024927857142899 23.412140000000001 24.885366428571402
decision_type=2 2 2 2 2 2
left_child=1 2 3 -1 -4 -5
right_child=-2 -3 4 5 -6 -7
leaf_value=100 -100 -100 100 2.3755536512895064 100 -23.476912841796874
leaf_count=29 24 26 31 22 20 20
internal_value=0 283.86536480929402 2777.6360435016818 1381.0348542979066 4721.9239735696829 -198.70289357503256
internal_count=172 148 122 71 51 42
shrinkage=0.05


Tree=125
num_leaves=7
num_cat=0
split_feature=1 7 3 5 6 9
split_gain=11653131336.511879 4139987510.5118966 279812309.25951183 375688289.00459892 486733063.03276128 99698245.645953849
threshold=9.9999996826552254e-21 9.9999996826552254e-21 9.9999996826552254e-21 9.9999996826552254e-21 9.9999996826552254e-21 9.9999996826552254e-21
decision_type=2 2 2 2 2 2
left_child=1 2 3 4 5 -1
right_child=-2 -3 -4 -5 -6 -7
leaf_value=-100 -100 -100 100 100 100 42.043668212890623
leaf_count=30 25 24 27 24 22 20
internal_value=0 433.92945316859652 2778.1254136620501 1978.24121483167 836.10583506690136 -888.5621995544434
internal_count=172 147 123 96 72 50
shrinkage=0.05


Tree=126
num_leaves=7
num_cat=0
split_feature=3 5 6 2 8 9
split_gain=2305328593.5339928 2788333367.9927816 3343198178.7940369 4757989412.4819469 349380378.18094254 830928430.74880981
threshold=9.9999996826552254e-21 9.9999996826552254e-21 9.9999996826552254e-21 9.9999996826552254e-21 18.024927857142899 9.9999996826552254e-21
decision_type=2 2 2 2 2 2
left_child=1 2 3 4 -1 -6
right_child=-2 -3 -4 -5 5 -7
leaf_value=-100 100 100 100 100 -100 -100
leaf_count=24 27 24 22 22 28 25
internal_value=0 -4541.705864360415 -6494.7015440601945 -8972.5920902406324 -12678.205558479607 -14111.619350217423
internal_count=172 145 121 99 77 53
shrinkage=0.05


Tree=127
num_leaves=7
num_cat=0
split_feature=1 7 8 8 8 8
split_gain=11407051514.36058 3970901094.3015318 441009023.12998724 334830499.72887444 304297603.55452907 121651118.70299439
threshold=9.9999996826552254e-21 9.9999996826552254e-21 25.041527857142853 20.049036428571448 15.465885 33.513410714285698
decision_type=2 2 2 2 2 2
left_child=1 2 3 4 -1 -4
right_child=-2 -3 5 -5 -6 -7
leaf_value=100 -100 -100 -85.231217041015626 100 24.185187517801921 83.3787990404212
leaf_count=21 25 24 20 29 30 23
internal_value=0 386.03239840552919 2681.8582018720426 4070.0849761009217 2527.3851771635168 99.11071493459302
internal_count=172 147 123 80 51 43
shrinkage=0.05


Tree=128
num_leaves=7
num_cat=0
split_feature=1 7 8 8 8 8
split_gain=11284874711.935684 3887597140.3783174 426337123.83531952 327849687.05011821 295072110.9429754 109790134.11652294
threshold=9.9999996826552254e-21 9.9999996826552254e-21 25.041527857142853 20.049036428571448 15.465885 33.513410714285698
decision_type=2 2 2 2 2 2
left_child=1 2 3 4 -1 -4
right_child=-2 -3 5 -5 -6 -7
leaf_value=100 -100 -100 -80.969660644531245 100 22.975934956868489 79.209854258661693
leaf_count=21 25 24 20 29 30 23
internal_value=0 361.95999332350129 2633.5765467698011 3998.5155818939211 2471.9822058584177 94.155086073764537
internal_count=172 147 123 80 51 43
shrinkage=0.05


Tree=129
num_leaves=7
num_cat=0
split_feature=1 7 8 8 8 8
split_gain=11163667568.477406 3805387218.48454 411957534.10820031 320832862.98835635 285844926.41746664 99085581.207405537
threshold=9.9999996826552254e-21 9.9999996826552254e-21 25.041527857142853 20.049036428571448 15.465885 33.513410714285698
decision_type=2 2 2 2 2 2
left_child=1 2 3 4 -1 -4
right_child=-2 -3 5 -5 -6 -7
leaf_value=100 -100 -100 -76.921169433593761 100 21.827131350835167 75.249358334748635
leaf_count=21 25 24 20 29 30 23
internal_value=0 338.20683819258295 2585.6764345401671 3927.399554848671 2417.2903987286136 89.447373501090112
internal_count=172 147 123 80 51 43
shrinkage=0.05


Tree=130
num_leaves=6
num_cat=0
split_feature=1 7 8 8 8
split_gain=12723852398.340485 4328066822.2128344 447869087.09361935 331310895.57703614 106500037.31493545
threshold=9.9999996826552254e-21 9.9999996826552254e-21 26.240974999999999 20.049036428571448 15.018002857142902
decision_type=2 2 2 2 2
left_child=1 2 3 4 -1
right_child=-2 -3 -4 -5 -6
leaf_value=100 -100 -100 -0.37351815359933038 100 98.521066250119901
leaf_count=20 28 25 28 36 35
internal_value=0 977.09198702043955 3489.9170568690579 4566.0362630047639 3022.3214600823144
internal_count=172 144 119 91 55
shrinkage=0.05


Tree=131
num_leaves=6
num_cat=0
split_feature=1 7 8 8 8
split_gain=12565528634.80756 4223480451.5760221 428535256.79103303 331151096.82345629 106391164.48013622
threshold=9.9999996826552254e-21 9.9999996826552254e-21 26.240974999999999 20.049036428571448 15.018002857142902
decision_type=2 2 2 2 2
left_child=1 2 3 4 -1
right_child=-2 -3 -4 -5 -6
leaf_value=100 -100 -100 -0.3548431396484375 100 93.595014806474964
leaf_count=20 28 25 28 36 35
internal_value=0 931.69075157907275 3413.9693435220156 4466.6050993112422 2923.2626256075773
internal_count=172 144 119 91 55
shrinkage=0.05


Tree=132
num_leaves=6
num_cat=0
split_feature=1 7 8 8 8
split_gain=12409483634.681347 4121016113.544589 409986425.40905786 330459509.67585635 105920314.43043977
threshold=9.9999996826552254e-21 9.9999996826552254e-21 26.240974999999999 20.049036428571448 15.018002857142902
decision_type=2 2 2 2 2
left_child=1 2 3 4 -1
right_child=-2 -3 -4 -5 -6
leaf_value=100 -100 -100 -0.33709934779575895 100 88.915260641915467
leaf_count=20 28 25 28 36 35
internal_value=0 887.48317254251901 3339.4660545397205 4369.06852884607 2827.3384817470205
internal_count=172 144 119 91 55
shrinkage=0.05


Tree=133
num_leaves=6
num_cat=0
split_feature=1 7 8 8 8
split_gain=12255629260.562551 4020600962.6529922 392181019.57002926 329264310.58872986 105107897.3719517
threshold=9.9999996826552254e-21 9.9999996826552254e-21 26.240974999999999 20.049036428571448 15.018002857142902
decision_type=2 2 2 2 2
left_child=1 2 3 4 -1
right_child=-2 -3 -4 -5 -6
leaf_value=100 -100 -100 -0.32024143763950896 100 84.469499577113567
leaf_count=20 28 25 28 36 35
internal_value=0 844.40961692068311 3266.3350271978297 4273.3319059518672 2734.3924329584297
internal_count=172 144 119 91 55
shrinkage=0.05


Tree=134
num_leaves=6
num_cat=0
split_feature=1 7 8 8 8
split_gain=12103882232.366411 3922166464.7601113 375080309.02921224 327593402.68744755 103974909.70189905
threshold=9.9999996826552254e-21 9.9999996826552254e-21 26.240974999999999 20.049036428571448 15.018002857142902
decision_type=2 2 2 2 2
left_child=1 2 3 4 -1
right_child=-2 -3 -4 -5 -6
leaf_value=100 -100 -100 -0.30422668457031254 100 80.246023712158205
leaf_count=20 28 25 28 36 35
internal_value=0 802.41333333651221 3194.5075916001779 4179.3051686129729 2644.2754675431684
internal_count=172 144 119 91 55
shrinkage=0.05


Tree=135
num_leaves=7
num_cat=0
split_feature=1 4 7 8 8 8
split_gain=10698021303.235514 4020715703.4399333 2760056320.5311089 967579693.9948684 518414531.5426029 268526593.3302508
threshold=9.9999996826552254e-21 9.9999996826552254e-21 9.9999996826552254e-21 25.041527857142853 20.049036428571448 16.353009999999998
decision_type=2 2 2 2 2 2
left_child=1 2 3 4 5 -1
right_child=-2 -3 -4 -5 -6 -7
leaf_value=100 -100 100 -100 -100 100 -100
leaf_count=24 25 20 26 32 25 20
internal_value=0 265.11294934538756 -1810.3077937449057 554.97514260169305 2662.7932432976322 596.66295606439769
internal_count=172 147 127 101 69 44
shrinkage=0.05


Tree=136
num_leaves=7
num_cat=0
split_feature=1 4 7 8 8 8
split_gain=10608444418.546497 3956223280.2349124 2713891445.1383948 926707452.03270948 502017240.33550066 247313454.80076632
threshold=9.9999996826552254e-21 9.9999996826552254e-21 9.9999996826552254e-21 25.041527857142853 20.049036428571448 16.353009999999998
decision_type=2 2 2 2 2 2
left_child=1 2 3 4 5 -1
right_child=-2 -3 -4 -5 -6 -7
leaf_value=100 -100 100 -100 -100 100 -100
leaf_count=24 25 20 26 32 25 20
internal_value=0 271.23539650845692 -1787.4731482558363 557.94543925370317 2620.7642572375312 587.5720488808372
internal_count=172 147 127 101 69 44
shrinkage=0.05


Tree=137
num_leaves=7
num_cat=0
split_feature=1 4 7 8 8 8
split_gain=10519244137.890053 3892252283.5950418 2668115911.7947273 886717196.47698355 489453398.49208128 285333748.21006358
threshold=9.9999996826552254e-21 9.9999996826552254e-21 9.9999996826552254e-21 25.041527857142853 18.995782857142849 15.89914785714285
decision_type=2 2 2 2 2 2
left_child=1 2 3 4 5 -1
right_child=-2 -3 -4 -5 -6 -7
leaf_value=100 -100 100 -100 -100 100 -100
leaf_count=21 25 20 26 32 28 20
internal_value=0 277.35784600705517 -1764.6385019858053 560.9157370387918 2578.7352728359942 377.74452916587273
internal_count=172 147 127 101 69 41
shrinkage=0.05


Tree=138
num_leaves=7
num_cat=0
split_feature=4 3 5 6 8 8
split_gain=5845930953.160491 3332117095.9604921 4191001332.5053844 5507810268.9816456 478578406.95062256 120054346.21918869
threshold=9.9999996826552254e-21 9.9999996826552254e-21 9.9999996826552254e-21 9.9999996826552254e-21 25.041527857142853 19.217064999999998
decision_type=2 2 2 2 2 2
left_child=1 2 3 4 5 -1
right_child=-2 -3 -4 -5 -6 -7
leaf_value=-100 100 100 100 100 -100 -100
leaf_count=34 20 23 25 23 27 20
internal_value=0 -5042.6808178550318 -7019.684127216191 -9814.2694834195645 -13692.148222746673 -11973.373165554471
internal_count=172 152 129 104 81 54
shrinkage=0.05


Tree=139
num_leaves=7
num_cat=0
split_feature=1 4 7 3 5 8
split_gain=10313852044.031055 3783570726.0189328 2557656846.226532 875676406.477772 1146168781.8380921 1433717813.3203294
threshold=9.9999996826552254e-21 9.9999996826552254e-21 9.9999996826552254e-21 9.9999996826552254e-21 9.9999996826552254e-21 25.041527857142853
decision_type=2 2 2 2 2 2
left_child=1 2 3 4 5 -1
right_child=-2 -3 -4 -5 -6 -7
leaf_value=25.249080657958984 -100 100 -100 100 100 -100
leaf_count=32 25 20 26 23 25 21
internal_value=0 259.67077117712319 -1753.6148799385612 523.2919749647084 -1075.6317772498498 -3708.3783488723466
internal_count=172 147 127 101 78 53
shrinkage=0.05


Tree=140
num_leaves=7
num_cat=0
split_feature=1 7 8 8 11 8
split_gain=10082288220.035282 3498342725.047586 178763108.36984634 227255263.52675629 314024276.20072258 181625726.07394505
threshold=9.9999996826552254e-21 9.9999996826552254e-21 33.513410714285698 22.687155714285701 9.9999996826552254e-21 17.669412857142852
decision_type=2 2 2 2 2 2
left_child=1 2 3 4 5 -1
right_child=-2 -3 -4 -5 -6 -7
leaf_value=100 -100 -100 100 -30.371231079101563 22.841480427403607 100
leaf_count=22 25 25 21 24 31 24
internal_value=0 423.01712908063615 2631.3401441730439 2079.3796510601987 2916.825138636998 4574.6482132621431
internal_count=172 147 122 101 77 46
shrinkage=0.05


Tree=141
num_leaves=7
num_cat=0
split_feature=7 5 3 6 8 8
split_gain=1649568192.9000485 902070525.89014482 1152928053.0770841 1942742077.6922338 209538022.220788 472552567.63343835
threshold=9.9999996826552254e-21 9.9999996826552254e-21 9.9999996826552254e-21 9.9999996826552254e-21 17.239472142857149 25.041527857142853
decision_type=2 2 2 2 2 2
left_child=1 2 3 4 -1 -6
right_child=-2 -3 -4 -5 5 -7
leaf_value=-100 -100 100 100 100 -100 -100
leaf_count=21 25 22 24 27 31 22
internal_value=0 -1467.0025710540565 -2506.247497619629 -3986.6882474540485 -6635.8770372545396 -5576.6543533037293
internal_count=172 147 125 101 74 53
shrinkage=0.05


Tree=142
num_leaves=7
num_cat=0
split_feature=1 7 8 8 11 8
split_gain=9871983611.0066433 3352039525.318059 172173216.289276 211546887.41627765 300229099.07454324 181072705.88917387
threshold=9.9999996826552254e-21 9.9999996826552254e-21 33.513410714285698 22.687155714285701 9.9999996826552254e-21 17.669412857142852
decision_type=2 2 2 2 2 2
left_child=1 2 3 4 5 -1
right_child=-2 -3 -4 -5 -6 -7
leaf_value=100 -100 -100 100 -28.852669525146485 20.892954795591294 100
leaf_count=22 25 25 21 24 31 24
internal_value=0 395.26762872163943 2556.9206642322852 2015.229388161461 2823.2136308620502 4444.2134261545925
internal_count=172 147 122 101 77 46
shrinkage=0.05


Tree=143
num_leaves=7
num_cat=0
split_feature=7 5 3 6 8 8
split_gain=1565222104.1206582 865712811.53121781 1095304423.8514781 1839551465.3355012 209785384.14904928 472974979.98710632
threshold=9.9999996826552254e-21 9.9999996826552254e-21 9.9999996826552254e-21 9.9999996826552254e-21 17.239472142857149 25.041527857142853
decision_type=2 2 2 2 2 2
left_child=1 2 3 4 -1 -6
right_child=-2 -3 -4 -5 5 -7
leaf_value=-100 -100 100 100 100 -100 -100
leaf_count=21 25 22 24 27 31 22
internal_value=0 -1494.5890832239268 -2512.6753726501465 -3955.6455265838322 -6533.5172729492188 -5473.6695614220962
internal_count=172 147 125 101 74 53
shrinkage=0.05


Tree=144
num_leaves=7
num_cat=0
split_feature=1 7 8 8 8 11
split_gain=9664043663.825758 3208962610.2734756 165681615.77989709 196677234.83278006 292412010.86890459 126770533.60628426
threshold=9.9999996826552254e-21 9.9999996826552254e-21 33.513410714285698 22.687155714285701 18.995782857142849 9.9999996826552254e-21
decision_type=2 2 2 2 2 2
left_child=1 2 3 4 5 -1
right_child=-2 -3 -4 -5 -6 -7
leaf_value=100 -100 -100 100 -27.410034434000654 100 0.20322638617621527
leaf_count=30 25 25 21 24 20 27
internal_value=0 367.68112327938991 2482.6975758036629 1951.31635065362 2730.3865966796875 1576.0570528800026
internal_count=172 147 122 101 77 57
shrinkage=0.05


Tree=145
num_leaves=7
num_cat=0
split_feature=1 7 8 11 8 8
split_gain=9941910392.7871761 2514364797.3346276 291024261.25650597 351598950.92518932 270485708.47278833 22323446.81247139
threshold=9.9999996826552254e-21 9.9999996826552254e-21 18.803073571428598 9.9999996826552254e-21 28.408618571428597 22.935683571428552
decision_type=2 2 2 2 2 2
left_child=1 2 3 -1 5 -4
right_child=-2 -3 4 -5 -6 -7
leaf_value=100 -100 -100 100 -100 35.381285511363636 100
leaf_count=27 25 24 22 23 22 29
internal_value=0 538.51930293907117 2365.3930783775763 506.78222061157226 3638.4142138337434 4902.6759212718289
internal_count=172 147 123 50 73 51
shrinkage=0.05


Tree=146
num_leaves=5
num_cat=0
split_feature=1 7 11 9
split_gain=9825753227.8610535 2446942199.7545066 99885751.37563765 6774851.6899129152
threshold=9.9999996826552254e-21 9.9999996826552254e-21 9.9999996826552254e-21 9.9999996826552254e-21
decision_type=2 2 2 2
left_child=1 2 3 -1
right_child=-2 -3 -4 -5
leaf_value=100 -100 -100 58.421095508971113 100
leaf_count=26 25 24 47 50
internal_value=0 512.13569162167664 2314.3492522026463 3023.0148452959561
internal_count=172 147 123 76
shrinkage=0.05


Tree=147
num_leaves=7
num_cat=0
split_feature=1 5 3 2 8 8
split_gain=9685088663.9959202 353429135.50747544 327593342.67032593 443927186.84857386 291295398.13097227 462165645.54943985
threshold=9.9999996826552254e-21 9.9999996826552254e-21 9.9999996826552254e-21 9.9999996826552254e-21 18.803073571428598 26.240974999999999
decision_type=2 2 2 2 2 2
left_child=1 2 3 4 -1 -6
right_child=-2 -3 -4 -5 5 -7
leaf_value=-100 -100 100 100 100 100 -100
leaf_count=29 25 23 21 25 27 22
internal_value=0 458.08272185293185 -209.71599811123264 -943.63431391669712 -2118.9646940720386 -632.27452554508136
internal_count=172 147 124 103 78 49
shrinkage=0.05


Tree=148
num_leaves=7
num_cat=0
split_feature=1 7 8 11 8 9
split_gain=9566622057.6690006 2332798606.9032502 272386147.14081252 320741994.00423121 292174575.37552404 112146344.28365588
threshold=9.9999996826552254e-21 9.9999996826552254e-21 20.049036428571448 9.9999996826552254e-21 28.408618571428597 9.9999996826552254e-21
decision_type=2 2 2 2 2 2
left_child=1 2 3 -1 5 -4
right_child=-2 -3 4 -5 -6 -7
leaf_value=100 -100 -100 100 -95.730746784916633 29.72824873490767 100
leaf_count=30 25 24 22 27 22 22
internal_value=0 427.47047709769942 2187.1477356577307 585.84113967627809 3570.0943412780762 5057.859024568038
internal_count=172 147 123 57 66 44
shrinkage=0.05


Tree=149
num_leaves=7
num_cat=0
split_feature=1 7 8 8 9 8
split_gain=9457632666.5069618 2270681292.5843401 261774548.90737259 244280033.88216615 169181521.27078533 165219942.4112362
threshold=9.9999996826552254e-21 9.9999996826552254e-21 18.803073571428598 28.408618571428597 9.9999996826552254e-21 15.465885
decision_type=2 2 2 2 2 2
left_child=1 2 5 4 -4 -1
right_child=-2 -3 3 -5 -6 -7
leaf_value=100 -100 -100 100 28.241839044744321 100 -58.346809597673087
leaf_count=21 25 24 27 22 24 29
internal_value=0 406.59095451458779 2142.6819667506024 3350.0362476714672 4551.4948411829328 379.94471660614016
internal_count=172 147 123 73 51 50
shrinkage=0.05



feature importances:
trend=272
xf1=132
xf7=121
xf5=63
xf3=55
xf6=51
rainy=50
xf2=44
sunny=28
xf4=15
cloudy=3

pandas_categorical:[]